{"learner":{"attributes":{"best_iteration":"883","best_score":"0.01439156276018669","scikit_learn":"{\"_estimator_type\": \"regressor\"}"},"feature_names":[],"feature_types":[],"gradient_booster":{"model":{"cats":{"enc":[],"feature_segments":[],"sorted_idx":[]},"gbtree_model_param":{"num_parallel_tree":"1","num_trees":"984"},"iteration_indptr":[0,1,2,3,4,5,6,7,8,9,10,11,12,13,14,15,16,17,18,19,20,21,22,23,24,25,26,27,28,29,30,31,32,33,34,35,36,37,38,39,40,41,42,43,44,45,46,47,48,49,50,51,52,53,54,55,56,57,58,59,60,61,62,63,64,65,66,67,68,69,70,71,72,73,74,75,76,77,78,79,80,81,82,83,84,85,86,87,88,89,90,91,92,93,94,95,96,97,98,99,100,101,102,103,104,105,106,107,108,109,110,111,112,113,114,115,116,117,118,119,120,121,122,123,124,125,126,127,128,129,130,131,132,133,134,135,136,137,138,139,140,141,142,143,144,145,146,147,148,149,150,151,152,153,154,155,156,157,158,159,160,161,162,163,164,165,166,167,168,169,170,171,172,173,174,175,176,177,178,179,180,181,182,183,184,185,186,187,188,189,190,191,192,193,194,195,196,197,198,199,200,201,202,203,204,205,206,207,208,209,210,211,212,213,214,215,216,217,218,219,220,221,222,223,224,225,226,227,228,229,230,231,232,233,234,235,236,237,238,239,240,241,242,243,244,245,246,247,248,249,250,251,252,253,254,255,256,257,258,259,260,261,262,263,264,265,266,267,268,269,270,271,272,273,274,275,276,277,278,279,280,281,282,283,284,285,286,287,288,289,290,291,292,293,294,295,296,297,298,299,300,301,302,303,304,305,306,307,308,309,310,311,312,313,314,315,316,317,318,319,320,321,322,323,324,325,326,327,328,329,330,331,332,333,334,335,336,337,338,339,340,341,342,343,344,345,346,347,348,349,350,351,352,353,354,355,356,357,358,359,360,361,362,363,364,365,366,367,368,369,370,371,372,373,374,375,376,377,378,379,380,381,382,383,384,385,386,387,388,389,390,391,392,393,394,395,396,397,398,399,400,401,402,403,404,405,406,407,408,409,410,411,412,413,414,415,416,417,418,419,420,421,422,423,424,425,426,427,428,429,430,431,432,433,434,435,436,437,438,439,440,441,442,443,444,445,446,447,448,449,450,451,452,453,454,455,456,457,458,459,460,461,462,463,464,465,466,467,468,469,470,471,472,473,474,475,476,477,478,479,480,481,482,483,484,485,486,487,488,489,490,491,492,493,494,495,496,497,498,499,500,501,502,503,504,505,506,507,508,509,510,511,512,513,514,515,516,517,518,519,520,521,522,523,524,525,526,527,528,529,530,531,532,533,534,535,536,537,538,539,540,541,542,543,544,545,546,547,548,549,550,551,552,553,554,555,556,557,558,559,560,561,562,563,564,565,566,567,568,569,570,571,572,573,574,575,576,577,578,579,580,581,582,583,584,585,586,587,588,589,590,591,592,593,594,595,596,597,598,599,600,601,602,603,604,605,606,607,608,609,610,611,612,613,614,615,616,617,618,619,620,621,622,623,624,625,626,627,628,629,630,631,632,633,634,635,636,637,638,639,640,641,642,643,644,645,646,647,648,649,650,651,652,653,654,655,656,657,658,659,660,661,662,663,664,665,666,667,668,669,670,671,672,673,674,675,676,677,678,679,680,681,682,683,684,685,686,687,688,689,690,691,692,693,694,695,696,697,698,699,700,701,702,703,704,705,706,707,708,709,710,711,712,713,714,715,716,717,718,719,720,721,722,723,724,725,726,727,728,729,730,731,732,733,734,735,736,737,738,739,740,741,742,743,744,745,746,747,748,749,750,751,752,753,754,755,756,757,758,759,760,761,762,763,764,765,766,767,768,769,770,771,772,773,774,775,776,777,778,779,780,781,782,783,784,785,786,787,788,789,790,791,792,793,794,795,796,797,798,799,800,801,802,803,804,805,806,807,808,809,810,811,812,813,814,815,816,817,818,819,820,821,822,823,824,825,826,827,828,829,830,831,832,833,834,835,836,837,838,839,840,841,842,843,844,845,846,847,848,849,850,851,852,853,854,855,856,857,858,859,860,861,862,863,864,865,866,867,868,869,870,871,872,873,874,875,876,877,878,879,880,881,882,883,884,885,886,887,888,889,890,891,892,893,894,895,896,897,898,899,900,901,902,903,904,905,906,907,908,909,910,911,912,913,914,915,916,917,918,919,920,921,922,923,924,925,926,927,928,929,930,931,932,933,934,935,936,937,938,939,940,941,942,943,944,945,946,947,948,949,950,951,952,953,954,955,956,957,958,959,960,961,962,963,964,965,966,967,968,969,970,971,972,973,974,975,976,977,978,979,980,981,982,983,984],"tree_info":[0,0,0,0,0,0,0,0,0,0,0,0,0,0,0,0,0,0,0,0,0,0,0,0,0,0,0,0,0,0,0,0,0,0,0,0,0,0,0,0,0,0,0,0,0,0,0,0,0,0,0,0,0,0,0,0,0,0,0,0,0,0,0,0,0,0,0,0,0,0,0,0,0,0,0,0,0,0,0,0,0,0,0,0,0,0,0,0,0,0,0,0,0,0,0,0,0,0,0,0,0,0,0,0,0,0,0,0,0,0,0,0,0,0,0,0,0,0,0,0,0,0,0,0,0,0,0,0,0,0,0,0,0,0,0,0,0,0,0,0,0,0,0,0,0,0,0,0,0,0,0,0,0,0,0,0,0,0,0,0,0,0,0,0,0,0,0,0,0,0,0,0,0,0,0,0,0,0,0,0,0,0,0,0,0,0,0,0,0,0,0,0,0,0,0,0,0,0,0,0,0,0,0,0,0,0,0,0,0,0,0,0,0,0,0,0,0,0,0,0,0,0,0,0,0,0,0,0,0,0,0,0,0,0,0,0,0,0,0,0,0,0,0,0,0,0,0,0,0,0,0,0,0,0,0,0,0,0,0,0,0,0,0,0,0,0,0,0,0,0,0,0,0,0,0,0,0,0,0,0,0,0,0,0,0,0,0,0,0,0,0,0,0,0,0,0,0,0,0,0,0,0,0,0,0,0,0,0,0,0,0,0,0,0,0,0,0,0,0,0,0,0,0,0,0,0,0,0,0,0,0,0,0,0,0,0,0,0,0,0,0,0,0,0,0,0,0,0,0,0,0,0,0,0,0,0,0,0,0,0,0,0,0,0,0,0,0,0,0,0,0,0,0,0,0,0,0,0,0,0,0,0,0,0,0,0,0,0,0,0,0,0,0,0,0,0,0,0,0,0,0,0,0,0,0,0,0,0,0,0,0,0,0,0,0,0,0,0,0,0,0,0,0,0,0,0,0,0,0,0,0,0,0,0,0,0,0,0,0,0,0,0,0,0,0,0,0,0,0,0,0,0,0,0,0,0,0,0,0,0,0,0,0,0,0,0,0,0,0,0,0,0,0,0,0,0,0,0,0,0,0,0,0,0,0,0,0,0,0,0,0,0,0,0,0,0,0,0,0,0,0,0,0,0,0,0,0,0,0,0,0,0,0,0,0,0,0,0,0,0,0,0,0,0,0,0,0,0,0,0,0,0,0,0,0,0,0,0,0,0,0,0,0,0,0,0,0,0,0,0,0,0,0,0,0,0,0,0,0,0,0,0,0,0,0,0,0,0,0,0,0,0,0,0,0,0,0,0,0,0,0,0,0,0,0,0,0,0,0,0,0,0,0,0,0,0,0,0,0,0,0,0,0,0,0,0,0,0,0,0,0,0,0,0,0,0,0,0,0,0,0,0,0,0,0,0,0,0,0,0,0,0,0,0,0,0,0,0,0,0,0,0,0,0,0,0,0,0,0,0,0,0,0,0,0,0,0,0,0,0,0,0,0,0,0,0,0,0,0,0,0,0,0,0,0,0,0,0,0,0,0,0,0,0,0,0,0,0,0,0,0,0,0,0,0,0,0,0,0,0,0,0,0,0,0,0,0,0,0,0,0,0,0,0,0,0,0,0,0,0,0,0,0,0,0,0,0,0,0,0,0,0,0,0,0,0,0,0,0,0,0,0,0,0,0,0,0,0,0,0,0,0,0,0,0,0,0,0,0,0,0,0,0,0,0,0,0,0,0,0,0,0,0,0,0,0,0,0,0,0,0,0,0,0,0,0,0,0,0,0,0,0,0,0,0,0,0,0,0,0,0,0,0,0,0,0,0,0,0,0,0,0,0,0,0,0,0,0,0,0,0,0,0,0,0,0,0,0,0,0,0,0,0,0,0,0,0,0,0,0,0,0,0,0,0,0,0,0,0,0,0,0,0,0,0,0,0,0,0,0,0,0,0,0,0,0,0,0,0,0,0,0,0,0,0,0,0,0,0,0,0,0,0,0,0,0,0,0,0,0,0,0,0,0,0,0,0,0,0,0,0,0,0,0,0,0,0,0,0,0,0,0,0,0,0,0,0,0,0,0,0,0,0,0,0,0,0,0,0,0,0,0,0,0,0,0,0,0,0,0,0,0,0,0,0,0,0,0,0,0,0,0,0,0,0,0,0,0,0,0,0,0,0,0,0,0,0,0,0,0,0,0,0,0,0,0,0,0,0,0,0,0,0,0],"trees":[{"base_weights":[-0E0,-6.350877E-1,7.4793386E-1,1.0144927E-1,-8.663595E-1,-8.0000006E-2,7.773109E-1,-7.1428575E-2,3.0357143E-2,-9.073171E-2,-1.5384616E-2,5.952381E-2,9.7345136E-2],"categories":[],"categories_nodes":[],"categories_segments":[],"categories_sizes":[],"default_left":[0,0,0,0,0,0,0,0,0,0,0,0,0],"id":0,"left_children":[1,3,5,7,9,-1,11,-1,-1,-1,-1,-1,-1],"loss_changes":[2.503269E2,4.863485E1,1.162648E1,1.1593427E1,6.1930847E0,0E0,7.919983E0,0E0,0E0,0E0,0E0,0E0,0E0],"parents":[2147483647,0,0,1,1,2,2,3,3,4,4,6,6],"right_children":[2,4,6,8,10,-1,12,-1,-1,-1,-1,-1,-1],"split_conditions":[9.103203E0,2.224864E0,-6.991153E-2,6.2034916E1,8.63928E0,-3.0328266E-3,3.7821766E-2,-1.35486E-3,6.0463336E-4,-4.7342605E-3,-1.3881084E-3,3.5153367E-3,8.007084E-3],"split_indices":[6,6,9,7,6,0,9,0,0,0,0,0,0],"split_type":[0,0,0,0,0,0,0,0,0,0,0,0,0],"sum_hessian":[5.25E2,2.84E2,2.41E2,6.8E1,2.16E2,4E0,2.37E2,1.3E1,5.5E1,2.04E2,1.2E1,1.25E2,1.12E2],"tree_param":{"num_deleted":"0","num_feature":"11","num_nodes":"13","size_leaf_vector":"1"}},{"base_weights":[1.9011407E-3,-6.175439E-1,7.3140496E-1,1.1594203E-1,-8.4792626E-1,5.307692E-1,9.557522E-1,-3.448276E-2,4.3902438E-2,-8.8780485E-2,-1.5384616E-2,3.7113402E-2,9.7058825E-2,4.0000003E-2,9.724771E-2],"categories":[],"categories_nodes":[],"categories_segments":[],"categories_sizes":[],"default_left":[0,0,0,0,0,0,0,0,0,0,0,0,0,0,0],"id":1,"left_children":[1,3,5,7,9,11,13,-1,-1,-1,-1,-1,-1,-1,-1],"loss_changes":[2.3814449E2,4.8258247E1,1.0385635E1,1.0423179E1,5.869751E0,8.7671585E0,6.613312E-1,0E0,0E0,0E0,0E0,0E0,0E0,0E0,0E0],"parents":[2147483647,0,0,1,1,2,2,3,3,4,4,5,5,6,6],"right_children":[2,4,6,8,10,12,14,-1,-1,-1,-1,-1,-1,-1,-1],"split_conditions":[9.103203E0,2.224864E0,3.7821766E-2,4.9222485E1,8.63928E0,2.808231E2,1.295653E1,-1.2070354E-3,1.0384301E-3,-4.260834E-3,-1.2492975E-3,1.9322596E-3,5.3417133E-3,2.4628234E-3,7.3493496E-3],"split_indices":[6,6,9,8,6,7,7,0,0,0,0,0,0,0,0],"split_type":[0,0,0,0,0,0,0,0,0,0,0,0,0,0,0],"sum_hessian":[5.25E2,2.84E2,2.41E2,6.8E1,2.16E2,1.29E2,1.12E2,2.8E1,4E1,2.04E2,1.2E1,9.6E1,3.3E1,4E0,1.08E2],"tree_param":{"num_deleted":"0","num_feature":"11","num_nodes":"15","size_leaf_vector":"1"}},{"base_weights":[-5.7034222E-3,-5.964912E-1,6.9008267E-1,9.2307694E-2,-7.963801E-1,-8.0000006E-2,7.184874E-1,-6.428572E-2,2.8846154E-2,-8.390244E-2,-2.3529412E-2,3.90625E-2,8.342858E-2],"categories":[],"categories_nodes":[],"categories_segments":[],"categories_sizes":[],"default_left":[0,0,0,0,0,0,0,0,0,0,0,0,0],"id":2,"left_children":[1,3,5,7,9,-1,11,-1,-1,-1,-1,-1,-1],"loss_changes":[2.166302E2,3.931324E1,1.0817535E1,9.55879E0,5.0904694E0,0E0,8.710007E0,0E0,0E0,0E0,0E0,0E0,0E0],"parents":[2147483647,0,0,1,1,2,2,3,3,4,4,6,6],"right_children":[2,4,6,8,10,-1,12,-1,-1,-1,-1,-1,-1],"split_conditions":[9.103203E0,2.0764778E0,-6.991153E-2,6.2034916E1,8.524734E0,-2.9227699E-3,4.1315243E1,-1.323217E-3,6.375802E-4,-3.9228625E-3,-1.1243677E-3,2.598154E-3,4.9940804E-3],"split_indices":[6,6,9,7,6,0,8,0,0,0,0,0,0],"split_type":[0,0,0,0,0,0,0,0,0,0,0,0,0],"sum_hessian":[5.25E2,2.84E2,2.41E2,6.4E1,2.2E2,4E0,2.37E2,1.3E1,5.1E1,2.04E2,1.6E1,6.3E1,1.74E2],"tree_param":{"num_deleted":"0","num_feature":"11","num_nodes":"13","size_leaf_vector":"1"}},{"base_weights":[5.7034222E-3,-5.473684E-1,6.570248E-1,8.450704E-2,-7.5348836E-1,3.2911393E-1,8.109756E-1,-6.666667E-2,2.8070176E-2,-8.1025645E-2,-1.904762E-2,2.5000002E-3,6.25E-2,4.0000003E-2,9.153846E-2],"categories":[],"categories_nodes":[],"categories_segments":[],"categories_sizes":[],"default_left":[0,0,0,0,0,0,0,0,0,0,0,0,0,0,0],"id":3,"left_children":[1,3,5,7,9,11,13,-1,-1,-1,-1,-1,-1,-1,-1],"loss_changes":[1.8983931E2,3.7182686E1,1.1949776E1,1.0650852E1,6.717293E0,7.0930376E0,6.671013E0,0E0,0E0,0E0,0E0,0E0,0E0,0E0,0E0],"parents":[2147483647,0,0,1,1,2,2,3,3,4,4,5,5,6,6],"right_children":[2,4,6,8,10,12,14,-1,-1,-1,-1,-1,-1,-1,-1],"split_conditions":[9.103203E0,2.311575E0,1.4220767E-2,6.2034916E1,3.1969772E2,1.1666959E1,3.640693E1,-1.3694003E-3,4.3082735E-4,-3.6761526E-3,-8.784961E-4,1.395857E-4,2.6939057E-3,2.7711156E-3,6.0762023E-3],"split_indices":[6,6,9,7,7,6,8,0,0,0,0,0,0,0,0],"split_type":[0,0,0,0,0,0,0,0,0,0,0,0,0,0,0],"sum_hessian":[5.25E2,2.84E2,2.41E2,7E1,2.14E2,7.8E1,1.63E2,1.4E1,5.6E1,1.94E2,2E1,3.9E1,3.9E1,3.4E1,1.29E2],"tree_param":{"num_deleted":"0","num_feature":"11","num_nodes":"15","size_leaf_vector":"1"}},{"base_weights":[1.9011407E-3,-5.122807E-1,6.07438E-1,8.695652E-2,-7.0046085E-1,-3.125E-1,6.696035E-1,-4.347826E-2,3.4042552E-2,-8.432836E-2,-4.6428572E-2,-7E-2,2.857143E-2,3.9285716E-2,8.263889E-2],"categories":[],"categories_nodes":[],"categories_segments":[],"categories_sizes":[],"default_left":[0,0,0,0,0,0,0,0,0,0,0,0,0,0,0],"id":4,"left_children":[1,3,5,7,9,11,13,-1,-1,-1,-1,-1,-1,-1,-1],"loss_changes":[1.6408446E2,3.21988E1,1.4048851E1,9.272895E0,6.9281464E0,3.9089289E0,9.524826E0,0E0,0E0,0E0,0E0,0E0,0E0,0E0,0E0],"parents":[2147483647,0,0,1,1,2,2,3,3,4,4,5,5,6,6],"right_children":[2,4,6,8,10,12,14,-1,-1,-1,-1,-1,-1,-1,-1],"split_conditions":[9.103203E0,2.224864E0,-4.2419E-2,4.2819828E1,6.4451556E0,1.8791164E2,4.933796E1,-1.4301296E-3,7.6647615E-4,-4.025679E-3,-1.3762423E-3,-8.482203E-4,1.7555266E-3,2.4173178E-3,4.2256615E-3],"split_indices":[6,6,9,8,6,7,8,0,0,0,0,0,0,0,0],"split_type":[0,0,0,0,0,0,0,0,0,0,0,0,0,0,0],"sum_hessian":[5.25E2,2.84E2,2.41E2,6.8E1,2.16E2,1.5E1,2.26E2,2.2E1,4.6E1,1.33E2,8.3E1,9E0,6E0,8.3E1,1.43E2],"tree_param":{"num_deleted":"0","num_feature":"11","num_nodes":"15","size_leaf_vector":"1"}},{"base_weights":[2.471483E-2,-4.4912282E-1,5.8264464E-1,8.450704E-2,-6.232558E-1,-4.375E-1,6.5198237E-1,-4.347826E-2,3.265306E-2,-3.3898305E-2,-7.2611466E-2,6.666667E-2,-6.428572E-2,5E-2,9.3589745E-2],"categories":[],"categories_nodes":[],"categories_segments":[],"categories_sizes":[],"default_left":[0,0,0,0,0,0,0,0,0,0,0,0,0,0,0],"id":5,"left_children":[1,3,5,7,9,11,13,-1,-1,-1,-1,-1,-1,-1,-1],"loss_changes":[1.3931932E2,2.6535603E1,1.7403E1,9.065273E0,6.040451E0,4.0565476E0,9.327118E0,0E0,0E0,0E0,0E0,0E0,0E0,0E0,0E0],"parents":[2147483647,0,0,1,1,2,2,3,3,4,4,5,5,6,6],"right_children":[2,4,6,8,10,12,14,-1,-1,-1,-1,-1,-1,-1,-1],"split_conditions":[9.103203E0,2.311575E0,-4.2419E-2,4.2819828E1,1.2330303E2,9.676275E0,5.64831E-2,-1.2871167E-3,5.105364E-4,-1.9404528E-3,-2.8802368E-3,5.4851496E-3,-4.046608E-4,2.115628E-3,6.2586227E-3],"split_indices":[6,6,9,8,7,6,9,0,0,0,0,0,0,0,0],"split_type":[0,0,0,0,0,0,0,0,0,0,0,0,0,0,0],"sum_hessian":[5.25E2,2.84E2,2.41E2,7E1,2.14E2,1.5E1,2.26E2,2.2E1,4.8E1,5.8E1,1.56E2,2E0,1.3E1,1.49E2,7.7E1],"tree_param":{"num_deleted":"0","num_feature":"11","num_nodes":"15","size_leaf_vector":"1"}},{"base_weights":[1.7110266E-2,-3.848684E-1,5.650224E-1,-7.311828E-1,-2.3113208E-1,1.5873016E-1,7.204969E-1,-8.615385E-2,-4.1379314E-2,-6.0869563E-2,-4.8611113E-3,-1.3953489E-2,7.619048E-2,3.6734696E-2,8.672567E-2],"categories":[],"categories_nodes":[],"categories_segments":[],"categories_sizes":[],"default_left":[0,0,0,0,0,0,0,0,0,0,0,0,0,0,0],"id":6,"left_children":[1,3,5,7,9,11,13,-1,-1,-1,-1,-1,-1,-1,-1],"loss_changes":[1.16068436E2,1.6016293E1,1.3972115E1,3.4912415E0,1.4580025E1,1.1440385E1,8.025757E0,0E0,0E0,0E0,0E0,0E0,0E0,0E0,0E0],"parents":[2147483647,0,0,1,1,2,2,3,3,4,4,5,5,6,6],"right_children":[2,4,6,8,10,12,14,-1,-1,-1,-1,-1,-1,-1,-1],"split_conditions":[-5.7108E-3,-7.39055E-2,4.1315243E1,6.4451556E0,4.3328968E1,5.64831E-2,1.9838467E-2,-6.3365935E-3,-1.1186686E-3,-1.6233545E-3,-5.8950856E-5,-3.284262E-4,3.1994507E-3,2.1149542E-3,4.95479E-3],"split_indices":[9,9,8,6,8,9,9,0,0,0,0,0,0,0,0],"split_type":[0,0,0,0,0,0,0,0,0,0,0,0,0,0,0],"sum_hessian":[5.25E2,3.03E2,2.22E2,9.2E1,2.11E2,6.2E1,1.6E2,6.4E1,2.8E1,6.8E1,1.43E2,4.2E1,2E1,4.8E1,1.12E2],"tree_param":{"num_deleted":"0","num_feature":"11","num_nodes":"15","size_leaf_vector":"1"}},{"base_weights":[2.471483E-2,-3.8162544E-1,4.9590164E-1,8.450704E-2,-5.3521127E-1,2.0588236E-1,6.993007E-1,-8.1250004E-2,3.392857E-2,-5.8910888E-2,4.1666668E-2,8.684211E-2,-1.8461538E-2,-0E0,7.633588E-2],"categories":[],"categories_nodes":[],"categories_segments":[],"categories_sizes":[],"default_left":[0,0,0,0,0,0,0,0,0,0,0,0,0,0,0],"id":7,"left_children":[1,3,5,7,9,11,13,-1,-1,-1,-1,-1,-1,-1,-1],"loss_changes":[1.0089836E2,2.0305576E1,1.4249504E1,1.6501886E1,1.117321E1,2.6549751E1,6.4058075E0,0E0,0E0,0E0,0E0,0E0,0E0,0E0,0E0],"parents":[2147483647,0,0,1,1,2,2,3,3,4,4,5,5,6,6],"right_children":[2,4,6,8,10,12,14,-1,-1,-1,-1,-1,-1,-1,-1],"split_conditions":[8.99607E0,2.311575E0,1.2234667E1,6.477648E1,3.288918E2,1.0192422E1,4.3197926E1,-9.769052E-4,5.1802996E-4,-2.450258E-3,2.5711322E-4,5.883561E-3,-2.0000618E-4,-2.3889635E-4,3.318049E-3],"split_indices":[6,6,6,7,7,6,7,0,0,0,0,0,0,0,0],"split_type":[0,0,0,0,0,0,0,0,0,0,0,0,0,0,0],"sum_hessian":[5.25E2,2.82E2,2.43E2,7E1,2.12E2,1.01E2,1.42E2,1.5E1,5.5E1,2.01E2,1.1E1,3.7E1,6.4E1,1.2E1,1.3E2],"tree_param":{"num_deleted":"0","num_feature":"11","num_nodes":"15","size_leaf_vector":"1"}},{"base_weights":[4.3726236E-2,-3.2258064E-1,4.5564517E-1,-7.580645E-1,-1.9724771E-1,2.8070176E-1,8.333333E-1,-8.571429E-2,-3.5714287E-2,-5.694444E-2,-1.3605442E-3,1.3571429E-2,9.0625E-2,-5E-2,8.571429E-2],"categories":[],"categories_nodes":[],"categories_segments":[],"categories_sizes":[],"default_left":[0,0,0,0,0,0,0,0,0,0,0,0,0,0,0],"id":8,"left_children":[1,3,5,7,9,11,13,-1,-1,-1,-1,-1,-1,-1,-1],"loss_changes":[7.951446E1,1.5078424E1,1.6152447E1,2.156681E0,1.489278E1,1.5386137E1,2.9047623E0,0E0,0E0,0E0,0E0,0E0,0E0,0E0,0E0],"parents":[2147483647,0,0,1,1,2,2,3,3,4,4,5,5,6,6],"right_children":[2,4,6,8,10,12,14,-1,-1,-1,-1,-1,-1,-1,-1],"split_conditions":[8.840228E0,-8.437783E-2,5.64831E-2,6.4451556E0,4.3328968E1,2.957795E2,-7.8156486E-2,-6.128186E-3,-7.7323505E-4,-2.1398745E-3,-6.5761946E-5,9.344658E-4,3.2793619E-3,-1.3808739E-4,4.6508177E-3],"split_indices":[6,9,9,6,8,7,10,0,0,0,0,0,0,0,0],"split_type":[0,0,0,0,0,0,0,0,0,0,0,0,0,0,0],"sum_hessian":[5.25E2,2.78E2,2.47E2,6.1E1,2.17E2,1.7E2,7.7E1,4.8E1,1.3E1,7.1E1,1.46E2,1.39E2,3.1E1,1E0,7.6E1],"tree_param":{"num_deleted":"0","num_feature":"11","num_nodes":"15","size_leaf_vector":"1"}},{"base_weights":[3.2319393E-2,-3.9545456E-1,3.3876222E-1,-6.933333E-1,-2.3972602E-1,1.8691588E-2,5.074627E-1,-5.1063832E-2,-9.6551724E-2,-3.983051E-2,4.1379314E-2,-3.0645162E-2,4.5652177E-2,-1.7857144E-2,6.1494257E-2],"categories":[],"categories_nodes":[],"categories_segments":[],"categories_sizes":[],"default_left":[0,0,0,0,0,0,0,0,0,0,0,0,0,0,0],"id":9,"left_children":[1,3,5,7,9,11,13,-1,-1,-1,-1,-1,-1,-1,-1],"loss_changes":[6.908639E1,1.00392E1,1.6567307E1,3.2364693E0,1.52954445E1,1.5372155E1,1.4930519E1,0E0,0E0,0E0,0E0,0E0,0E0,0E0,0E0],"parents":[2147483647,0,0,1,1,2,2,3,3,4,4,5,5,6,6],"right_children":[2,4,6,8,10,12,14,-1,-1,-1,-1,-1,-1,-1,-1],"split_conditions":[-3.35691E-2,4.3539368E1,6E0,2.1662381E2,2.9797885E2,5.0569423E-2,6.3157524E1,-1.9597725E-3,-4.4956678E-3,-8.9826435E-4,1.5918343E-4,-1.1524775E-3,2.3899798E-3,-1.2700271E-4,2.4891708E-3],"split_indices":[9,8,3,7,7,10,7,0,0,0,0,0,0,0,0],"split_type":[0,0,0,0,0,0,0,0,0,0,0,0,0,0,0],"sum_hessian":[5.25E2,2.19E2,3.06E2,7.4E1,1.45E2,1.06E2,2E2,4.6E1,2.8E1,1.17E2,2.8E1,6.1E1,4.5E1,2.7E1,1.73E2],"tree_param":{"num_deleted":"0","num_feature":"11","num_nodes":"15","size_leaf_vector":"1"}},{"base_weights":[3.2319393E-2,-2.6644737E-1,4.394619E-1,-5.6565654E-1,-1.2135922E-1,9.2307694E-2,5.786164E-1,-3.59375E-2,-9.166667E-2,-2.0744681E-2,7.368421E-2,-2.2857143E-2,4.516129E-2,2.3529412E-2,7.33945E-2],"categories":[],"categories_nodes":[],"categories_segments":[],"categories_sizes":[],"default_left":[0,0,0,0,0,0,0,0,0,0,0,0,0,0,0],"id":10,"left_children":[1,3,5,7,9,11,13,-1,-1,-1,-1,-1,-1,-1,-1],"loss_changes":[6.4100075E1,1.31285095E1,1.0719284E1,6.8388577E0,1.5372235E1,7.5973063E0,8.306419E0,0E0,0E0,0E0,0E0,0E0,0E0,0E0,0E0],"parents":[2147483647,0,0,1,1,2,2,3,3,4,4,5,5,6,6],"right_children":[2,4,6,8,10,12,14,-1,-1,-1,-1,-1,-1,-1,-1],"split_conditions":[-5.7108E-3,4.3539368E1,4.2819828E1,2.1662381E2,3.2520007E2,1.4789328E1,2.03267E-2,-9.177406E-4,-4.011814E-3,-4.123818E-4,7.5629895E-4,-6.370601E-4,1.3570532E-3,1.2570544E-3,3.588441E-3],"split_indices":[9,8,8,7,7,6,9,0,0,0,0,0,0,0,0],"split_type":[0,0,0,0,0,0,0,0,0,0,0,0,0,0,0],"sum_hessian":[5.25E2,3.03E2,2.22E2,9.8E1,2.05E2,6.4E1,1.58E2,6.3E1,3.5E1,1.87E2,1.8E1,3.4E1,3E1,5E1,1.08E2],"tree_param":{"num_deleted":"0","num_feature":"11","num_nodes":"15","size_leaf_vector":"1"}},{"base_weights":[5.1330797E-2,-2.580645E-1,3.9919356E-1,-7.8E-1,-1.4347826E-1,1.4173229E-1,6.639344E-1,1.6666668E-2,-8.888889E-2,7.027027E-2,-3.041237E-2,-7.692308E-2,2.4347825E-2,7.1551725E-2,-2.857143E-2],"categories":[],"categories_nodes":[],"categories_segments":[],"categories_sizes":[],"default_left":[0,0,0,0,0,0,0,0,0,0,0,0,0,0,0],"id":11,"left_children":[1,3,5,7,9,11,13,-1,-1,-1,-1,-1,-1,-1,-1],"loss_changes":[5.6714874E1,1.6574137E1,1.6809711E1,5.302225E0,3.1478786E1,1.1958518E1,6.1806717E0,0E0,0E0,0E0,0E0,0E0,0E0,0E0,0E0],"parents":[2147483647,0,0,1,1,2,2,3,3,4,4,5,5,6,6],"right_children":[2,4,6,8,10,12,14,-1,-1,-1,-1,-1,-1,-1,-1],"split_conditions":[8.840228E0,6.477648E1,1.7622966E2,4.798779E0,1.2330303E2,-2.9037334E-2,8.6283676E1,1.4583711E-4,-2.3326394E-3,1.756239E-3,-1.1739143E-3,-5.776039E-4,8.695388E-4,3.0753517E-3,-8.088235E-4],"split_indices":[6,7,7,7,7,9,8,0,0,0,0,0,0,0,0],"split_type":[0,0,0,0,0,0,0,0,0,0,0,0,0,0,0],"sum_hessian":[5.25E2,2.78E2,2.47E2,4.9E1,2.29E2,1.26E2,1.21E2,5E0,4.4E1,3.6E1,1.93E2,1.2E1,1.14E2,1.15E2,6E0],"tree_param":{"num_deleted":"0","num_feature":"11","num_nodes":"15","size_leaf_vector":"1"}},{"base_weights":[4.7528517E-2,-3.2272726E-1,3.1270358E-1,-4.1025642E-1,3.4615386E-1,-0E0,4.7761193E-1,-2.857143E-2,-7.755102E-2,-1.3333335E-2,9.166667E-2,-1.6666668E-2,8.3333336E-2,1.2658228E-2,6.99187E-2],"categories":[],"categories_nodes":[],"categories_segments":[],"categories_sizes":[],"default_left":[0,0,0,0,0,0,0,0,0,0,0,0,0,0,0],"id":12,"left_children":[1,3,5,7,9,11,13,-1,-1,-1,-1,-1,-1,-1,-1],"loss_changes":[5.174497E1,1.3022261E1,1.5831202E1,8.648872E0,7.234615E0,1.5E1,1.5545158E1,0E0,0E0,0E0,0E0,0E0,0E0,0E0,0E0],"parents":[2147483647,0,0,1,1,2,2,3,3,4,4,5,5,6,6],"right_children":[2,4,6,8,10,12,14,-1,-1,-1,-1,-1,-1,-1,-1],"split_conditions":[-3.35691E-2,3.105503E2,6E0,2.4635284E2,6.4320307E0,5.39138E-2,4.9591568E1,-4.537506E-4,-3.4502812E-3,-5.0888624E-4,1.5879646E-3,-4.7618878E-4,4.1808723E-3,4.0169293E-4,2.5034237E-3],"split_indices":[9,7,3,7,6,9,8,0,0,0,0,0,0,0,0],"split_type":[0,0,0,0,0,0,0,0,0,0,0,0,0,0,0],"sum_hessian":[5.25E2,2.19E2,3.06E2,1.94E2,2.5E1,1.06E2,2E2,1.46E2,4.8E1,1.4E1,1.1E1,8.9E1,1.7E1,7.8E1,1.22E2],"tree_param":{"num_deleted":"0","num_feature":"11","num_nodes":"15","size_leaf_vector":"1"}},{"base_weights":[2.0912547E-2,-2.2039473E-1,3.497758E-1,-6.964286E-1,-1.124498E-1,2.5396827E-1,8.5714287E-1,6.666667E-2,-7.592593E-2,7.272728E-2,-2.3963135E-2,1.037037E-2,6.1818182E-2,-2.5E-2,9.6875004E-2],"categories":[],"categories_nodes":[],"categories_segments":[],"categories_sizes":[],"default_left":[0,0,0,0,0,0,0,0,0,0,0,0,0,0,0],"id":13,"left_children":[1,3,5,7,9,11,13,-1,-1,-1,-1,-1,-1,-1,-1],"loss_changes":[4.181892E1,1.5542862E1,1.06222515E1,5.302248E0,2.676678E1,1.0279559E1,4.566965E0,0E0,0E0,0E0,0E0,0E0,0E0,0E0,0E0],"parents":[2147483647,0,0,1,1,2,2,3,3,4,4,5,5,6,6],"right_children":[2,4,6,8,10,12,14,-1,-1,-1,-1,-1,-1,-1,-1],"split_conditions":[-5.7108E-3,6.477648E1,3.0400043E2,3.5433707E0,1.1722667E2,6.830116E-2,-6.77847E-2,9.990869E-4,-7.277475E-4,1.763561E-3,-6.1285513E-4,3.0373278E-4,3.3569548E-3,-9.1194546E-5,4.363337E-3],"split_indices":[9,7,7,7,7,9,10,0,0,0,0,0,0,0,0],"split_type":[0,0,0,0,0,0,0,0,0,0,0,0,0,0,0],"sum_hessian":[5.25E2,3.03E2,2.22E2,5.5E1,2.48E2,1.88E2,3.4E1,2E0,5.3E1,3.2E1,2.16E2,1.34E2,5.4E1,3E0,3.1E1],"tree_param":{"num_deleted":"0","num_feature":"11","num_nodes":"15","size_leaf_vector":"1"}},{"base_weights":[2.0912547E-2,-2.138158E-1,3.4080717E-1,-2.9962546E-1,3.9473686E-1,2.4338624E-1,8.5714287E-1,-1.7085427E-2,-6.666667E-2,-4.4444446E-2,6.333333E-2,-1.1111111E-3,4.7000002E-2,-2.5E-2,9.6875004E-2],"categories":[],"categories_nodes":[],"categories_segments":[],"categories_sizes":[],"default_left":[0,0,0,0,0,0,0,0,0,0,0,0,0,0,0],"id":14,"left_children":[1,3,5,7,9,11,13,-1,-1,-1,-1,-1,-1,-1,-1],"loss_changes":[3.9569336E1,1.5993064E1,1.1008707E1,1.2505674E1,7.890059E0,1.0905343E1,4.566965E0,0E0,0E0,0E0,0E0,0E0,0E0,0E0,0E0],"parents":[2147483647,0,0,1,1,2,2,3,3,4,4,5,5,6,6],"right_children":[2,4,6,8,10,12,14,-1,-1,-1,-1,-1,-1,-1,-1],"split_conditions":[-5.7108E-3,3.095309E2,3.0400043E2,2.4202948E2,4.3539368E1,3.8543534E-2,-6.77847E-2,-1.5650522E-4,-2.787308E-3,-8.424219E-4,7.197734E-4,-5.4217876E-6,1.9956974E-3,-8.2075036E-5,3.9270036E-3],"split_indices":[9,7,7,7,8,9,10,0,0,0,0,0,0,0,0],"split_type":[0,0,0,0,0,0,0,0,0,0,0,0,0,0,0],"sum_hessian":[5.25E2,3.03E2,2.22E2,2.66E2,3.7E1,1.88E2,3.4E1,1.98E2,6.8E1,8E0,2.9E1,8.9E1,9.9E1,3E0,3.1E1],"tree_param":{"num_deleted":"0","num_feature":"11","num_nodes":"15","size_leaf_vector":"1"}},{"base_weights":[1.3307985E-2,-4.8245615E-1,1.5012106E-1,8.3333336E-2,-5.504587E-1,-1.16959065E-1,3.3744857E-1,-3.269231E-2,-7.413793E-2,-1.9620253E-2,7.857143E-2,7.777778E-3,4.8701297E-2],"categories":[],"categories_nodes":[],"categories_segments":[],"categories_sizes":[],"default_left":[0,0,0,0,0,0,0,0,0,0,0,0,0],"id":15,"left_children":[1,3,5,-1,7,9,11,-1,-1,-1,-1,-1,-1],"loss_changes":[3.574944E1,1.0659103E1,2.0702457E1,0E0,4.409481E0,1.2385955E1,9.399637E0,0E0,0E0,0E0,0E0,0E0,0E0],"parents":[2147483647,0,0,1,1,2,2,4,4,5,5,6,6],"right_children":[2,4,6,-1,8,10,12,-1,-1,-1,-1,-1,-1],"split_conditions":[-6.536213E-2,-3.7795357E-2,4.9591568E1,1.0789931E-3,8.012267E-3,9.5415846E-2,8.499409E0,-1.2051754E-3,-3.7173394E-3,-4.0331038E-4,3.5368314E-3,7.7584016E-5,1.6385451E-3],"split_indices":[9,10,8,0,10,10,6,0,0,0,0,0,0],"split_type":[0,0,0,0,0,0,0,0,0,0,0,0,0],"sum_hessian":[5.25E2,1.13E2,4.12E2,5E0,1.08E2,1.7E2,2.42E2,5.1E1,5.7E1,1.57E2,1.3E1,8.9E1,1.53E2],"tree_param":{"num_deleted":"0","num_feature":"11","num_nodes":"13","size_leaf_vector":"1"}},{"base_weights":[3.2319393E-2,-8.454106E-2,4.60177E-1,-1.6850829E-1,4.9056605E-1,1.6949153E-1,7.6363635E-1,-5.283019E-3,-4.7959186E-2,-4.4444446E-2,6.666667E-2,9.090909E-2,-0E0,-2.5E-2,8.269231E-2],"categories":[],"categories_nodes":[],"categories_segments":[],"categories_sizes":[],"default_left":[0,0,0,0,0,0,0,0,0,0,0,0,0,0,0],"id":16,"left_children":[1,3,5,7,9,11,13,-1,-1,-1,-1,-1,-1,-1,-1],"loss_changes":[2.633871E1,2.0074785E1,9.83844E0,1.3001434E1,9.023062E0,7.3959937E0,3.7349663E0,0E0,0E0,0E0,0E0,0E0,0E0,0E0,0E0],"parents":[2147483647,0,0,1,1,2,2,3,3,4,4,5,5,6,6],"right_children":[2,4,6,8,10,12,14,-1,-1,-1,-1,-1,-1,-1,-1],"split_conditions":[3.8543534E-2,3.1433768E2,1.6838318E2,2.4202948E2,2.9987972E1,1.0129875E1,1.2E1,-3.687404E-5,-1.8997468E-3,-2.997904E-4,8.069354E-4,5.4726745E-3,6.3281695E-5,-2.697248E-4,3.0636655E-3],"split_indices":[9,7,7,7,8,6,4,0,0,0,0,0,0,0,0],"split_type":[0,0,0,0,0,0,0,0,0,0,0,0,0,0,0],"sum_hessian":[5.25E2,4.13E2,1.12E2,3.61E2,5.2E1,5.8E1,5.4E1,2.64E2,9.7E1,8E0,4.4E1,1E1,4.8E1,3E0,5.1E1],"tree_param":{"num_deleted":"0","num_feature":"11","num_nodes":"15","size_leaf_vector":"1"}},{"base_weights":[3.9923955E-2,-2.857143E-1,1.8306011E-1,-5.125E-1,-6.097561E-2,5.6140352E-2,6.219512E-1,4.0000003E-2,-5.6578945E-2,-1.4864865E-2,6.666667E-2,-3.187251E-3,6.857143E-2,1.7391305E-2,7.833334E-2],"categories":[],"categories_nodes":[],"categories_segments":[],"categories_sizes":[],"default_left":[0,0,0,0,0,0,0,0,0,0,0,0,0,0,0],"id":17,"left_children":[1,3,5,7,9,11,13,-1,-1,-1,-1,-1,-1,-1,-1],"loss_changes":[2.456948E1,8.174521E0,2.0352734E1,4.1164455E0,5.330257E0,1.5813878E1,5.7928047E0,0E0,0E0,0E0,0E0,0E0,0E0,0E0,0E0],"parents":[2147483647,0,0,1,1,2,2,3,3,4,4,5,5,6,6],"right_children":[2,4,6,8,10,12,14,-1,-1,-1,-1,-1,-1,-1,-1],"split_conditions":[4.2819828E1,-2.5392834E-2,2.8977502E2,-5.24801E-2,9.5415846E-2,7.111933E-2,6.2269554E0,4.4437172E-4,-1.7189488E-3,-2.3521483E-4,3.0444823E-3,-1.931917E-5,2.6397274E-3,1.2694272E-4,1.451175E-3],"split_indices":[8,9,7,10,10,9,6,0,0,0,0,0,0,0,0],"split_type":[0,0,0,0,0,0,0,0,0,0,0,0,0,0,0],"sum_hessian":[5.25E2,1.6E2,3.65E2,7.9E1,8.1E1,2.84E2,8.1E1,4E0,7.5E1,7.3E1,8E0,2.5E2,3.4E1,2.2E1,5.9E1],"tree_param":{"num_deleted":"0","num_feature":"11","num_nodes":"15","size_leaf_vector":"1"}},{"base_weights":[5.513308E-2,-5.614035E-1,1.2978724E-1,-7.3170733E-1,-1.1764706E-1,4.6798028E-2,6.4615387E-1,-4.0000003E-2,-8.888889E-2,-5.8333334E-2,8.3333336E-2,-3.2911394E-2,1.3719513E-2,2.0833334E-2,8.809524E-2],"categories":[],"categories_nodes":[],"categories_segments":[],"categories_sizes":[],"default_left":[0,0,0,0,0,0,0,0,0,0,0,0,0,0,0],"id":18,"left_children":[1,3,5,7,9,11,13,-1,-1,-1,-1,-1,-1,-1,-1],"loss_changes":[2.4283073E1,4.2216015E0,2.0110603E1,1.782114E0,8.014706E0,1.3841579E1,6.4984436E0,0E0,0E0,0E0,0E0,0E0,0E0,0E0,0E0],"parents":[2147483647,0,0,1,1,2,2,3,3,4,4,5,5,6,6],"right_children":[2,4,6,8,10,12,14,-1,-1,-1,-1,-1,-1,-1,-1],"split_conditions":[-9.083587E-2,6.5979294E1,3.095309E2,5.6770556E-3,6.2130527E0,6.477648E1,-1.5228989E-2,-1.1216969E-3,-4.932303E-3,-3.9799535E-3,2.4591238E-4,-2.6643198E-4,3.867088E-4,9.131841E-5,1.358759E-3],"split_indices":[9,8,7,10,6,7,10,0,0,0,0,0,0,0,0],"split_type":[0,0,0,0,0,0,0,0,0,0,0,0,0,0,0],"sum_hessian":[5.25E2,5.6E1,4.69E2,4E1,1.6E1,4.05E2,6.4E1,1.4E1,2.6E1,1.1E1,5E0,7.8E1,3.27E2,2.3E1,4.1E1],"tree_param":{"num_deleted":"0","num_feature":"11","num_nodes":"15","size_leaf_vector":"1"}},{"base_weights":[6.273764E-2,-2.7586207E-2,4.8913044E-1,-4.4444445E-1,6.760564E-2,-0E0,7.5E-1,-2.7419357E-2,-9.5E-2,-3.188406E-2,1.6027875E-2,6.666667E-2,-2.4E-2,-0E0,8.3333336E-2],"categories":[],"categories_nodes":[],"categories_segments":[],"categories_sizes":[],"default_left":[0,0,0,0,0,0,0,0,0,0,0,0,0,0,0],"id":19,"left_children":[1,3,5,7,9,11,13,-1,-1,-1,-1,-1,-1,-1,-1],"loss_changes":[2.027156E1,1.7291502E1,1.173913E1,6.7112885E0,1.276478E1,5.44E0,3.75E0,0E0,0E0,0E0,0E0,0E0,0E0,0E0,0E0],"parents":[2147483647,0,0,1,1,2,2,3,3,4,4,5,5,6,6],"right_children":[2,4,6,8,10,12,14,-1,-1,-1,-1,-1,-1,-1,-1],"split_conditions":[2.9797885E2,-7.39055E-2,6.4320307E0,2.4635284E2,6.2034916E1,1.3624473E0,-4.8253324E-2,-1.2087751E-3,-4.657799E-3,-2.857145E-4,4.3151868E-4,1.0511661E-4,-2.455961E-4,-2.4422072E-5,1.3154376E-3],"split_indices":[7,9,6,7,7,6,10,0,0,0,0,0,0,0,0],"split_type":[0,0,0,0,0,0,0,0,0,0,0,0,0,0,0],"sum_hessian":[5.25E2,4.34E2,9.1E1,8E1,3.54E2,3.2E1,5.9E1,6.1E1,1.9E1,6.8E1,2.86E2,8E0,2.4E1,6E0,5.3E1],"tree_param":{"num_deleted":"0","num_feature":"11","num_nodes":"15","size_leaf_vector":"1"}},{"base_weights":[5.8935363E-2,-7.1875E-1,1.0909091E-1,-8.2758623E-1,2.5E-1,-1.8300654E-1,2.3906706E-1,5E-2,-8.928572E-2,6.666667E-2,-5E-2,-6.538462E-2,-8.59375E-3,1.3584906E-2,5.822785E-2],"categories":[],"categories_nodes":[],"categories_segments":[],"categories_sizes":[],"default_left":[0,0,0,0,0,0,0,0,0,0,0,0,0,0,0],"id":20,"left_children":[1,3,5,7,9,11,13,-1,-1,-1,-1,-1,-1,-1,-1],"loss_changes":[2.0595163E1,3.5808182E0,1.8836773E1,2.9593601E0,1.5833334E0,6.9365144E0,1.2071878E1,0E0,0E0,0E0,0E0,0E0,0E0,0E0,0E0],"parents":[2147483647,0,0,1,1,2,2,3,3,4,4,5,5,6,6],"right_children":[2,4,6,8,10,12,14,-1,-1,-1,-1,-1,-1,-1,-1],"split_conditions":[-1.16439864E-1,6.2130527E0,4.2819828E1,1.2E1,3.0840012E2,6.2034916E1,2.8977502E2,1.3925408E-3,-6.1839735E-3,1.2020449E-3,-8.5821375E-5,-1.0428487E-3,-2.0671748E-4,2.1830258E-4,9.0108963E-4],"split_indices":[9,6,8,4,7,7,7,0,0,0,0,0,0,0,0],"split_type":[0,0,0,0,0,0,0,0,0,0,0,0,0,0,0],"sum_hessian":[5.25E2,3.1E1,4.94E2,2.8E1,3E0,1.52E2,3.42E2,1E0,2.7E1,2E0,1E0,2.5E1,1.27E2,2.64E2,7.8E1],"tree_param":{"num_deleted":"0","num_feature":"11","num_nodes":"15","size_leaf_vector":"1"}},{"base_weights":[4.7528517E-2,-6.1576355E-2,4.1322315E-1,-7.5E-1,-1.055409E-2,1.1290322E-1,7.1666664E-1,5E-2,-8.148148E-2,-2.1604938E-2,1.4220185E-2,3.5555556E-2,-5E-2,7.962963E-2,-0E0],"categories":[],"categories_nodes":[],"categories_segments":[],"categories_sizes":[],"default_left":[0,0,0,0,0,0,0,0,0,0,0,0,0,0,0],"id":21,"left_children":[1,3,5,7,9,11,13,-1,-1,-1,-1,-1,-1,-1,-1],"loss_changes":[2.1012354E1,1.4252808E1,1.0945833E1,2.6759262E0,1.192777E1,9.398566E0,3.4240742E0,0E0,0E0,0E0,0E0,0E0,0E0,0E0,0E0],"parents":[2147483647,0,0,1,1,2,2,3,3,4,4,5,5,6,6],"right_children":[2,4,6,8,10,12,14,-1,-1,-1,-1,-1,-1,-1,-1],"split_conditions":[3.5016432E-2,-1.2149073E-1,1.6838318E2,1.2E1,4.9591568E1,1.1386644E2,2.0415792E1,1.2532864E-3,-5.3649656E-3,-4.5244323E-4,1.3880209E-4,1.2871771E-3,-1.2282055E-3,3.00324E-3,1.7536804E-4],"split_indices":[9,9,7,4,8,7,6,0,0,0,0,0,0,0,0],"split_type":[0,0,0,0,0,0,0,0,0,0,0,0,0,0,0],"sum_hessian":[5.25E2,4.05E2,1.2E2,2.7E1,3.78E2,6.1E1,5.9E1,1E0,2.6E1,1.61E2,2.17E2,4.4E1,1.7E1,5.3E1,6E0],"tree_param":{"num_deleted":"0","num_feature":"11","num_nodes":"15","size_leaf_vector":"1"}},{"base_weights":[5.8935363E-2,-4.1062802E-2,4.2477876E-1,-1.1470588E-1,2.9333332E-1,-1.25E-1,5.6666666E-1,3.018868E-3,-6.184211E-2,-1.2903226E-2,5.777778E-2,-3.888889E-2,5.714286E-2,6.2068965E-2,-7.5E-2],"categories":[],"categories_nodes":[],"categories_segments":[],"categories_sizes":[],"default_left":[0,0,0,0,0,0,0,0,0,0,0,0,0,0,0],"id":22,"left_children":[1,3,5,7,9,11,13,-1,-1,-1,-1,-1,-1,-1,-1],"loss_changes":[1.9260452E1,1.0228795E1,8.885618E0,2.483377E1,9.085018E0,4.6329365E0,6.867243E0,0E0,0E0,0E0,0E0,0E0,0E0,0E0,0E0],"parents":[2147483647,0,0,1,1,2,2,3,3,4,4,5,5,6,6],"right_children":[2,4,6,8,10,12,14,-1,-1,-1,-1,-1,-1,-1,-1],"split_conditions":[3.8543534E-2,2.9797885E2,3.640693E1,2.4202948E2,6.2269554E0,2.3966579E2,2.1941805E1,3.554989E-5,-2.3631179E-3,-1.5126541E-4,6.357703E-4,-1.0116928E-3,2.0620094E-3,1.8374304E-3,-2.0072416E-3],"split_indices":[9,7,8,7,6,7,6,0,0,0,0,0,0,0,0],"split_type":[0,0,0,0,0,0,0,0,0,0,0,0,0,0,0],"sum_hessian":[5.25E2,4.13E2,1.12E2,3.39E2,7.4E1,2.3E1,8.9E1,2.64E2,7.5E1,3E1,4.4E1,1.7E1,6E0,8.6E1,3E0],"tree_param":{"num_deleted":"0","num_feature":"11","num_nodes":"15","size_leaf_vector":"1"}},{"base_weights":[4.3726236E-2,-4.5901638E-1,1.0944206E-1,2.1428572E-1,-6.458333E-1,4.950495E-1,2.7322404E-3,-8.3333336E-2,8.888889E-2,-7.5555556E-2,7.5E-2,-0E0,7.462686E-2,-4.691358E-2,1.3636365E-2],"categories":[],"categories_nodes":[],"categories_segments":[],"categories_sizes":[],"default_left":[0,0,0,0,0,0,0,0,0,0,0,0,0,0,0],"id":23,"left_children":[1,3,5,7,9,11,13,-1,-1,-1,-1,-1,-1,-1,-1],"loss_changes":[1.74283E1,7.8112316E0,1.9173662E1,1.063492E1,7.9180546E0,1.2560959E1,2.314261E1,0E0,0E0,0E0,0E0,0E0,0E0,0E0,0E0],"parents":[2147483647,0,0,1,1,2,2,3,3,4,4,5,5,6,6],"right_children":[2,4,6,8,10,12,14,-1,-1,-1,-1,-1,-1,-1,-1],"split_conditions":[4.3197926E1,9.397154E0,1.1722667E2,4.1576195E0,9.044004E-2,7.14202E1,1.6516403E2,-5.5942836E-4,8.005638E-4,-1.654583E-3,1.5222132E-3,-6.2113395E-7,1.9549795E-3,-1.0541277E-3,1.751151E-4],"split_indices":[7,7,7,6,10,7,7,0,0,0,0,0,0,0,0],"split_type":[0,0,0,0,0,0,0,0,0,0,0,0,0,0,0],"sum_hessian":[5.25E2,6E1,4.65E2,1.3E1,4.7E1,1E2,3.65E2,5E0,8E0,4.4E1,3E0,3.4E1,6.6E1,8E1,2.85E2],"tree_param":{"num_deleted":"0","num_feature":"11","num_nodes":"15","size_leaf_vector":"1"}},{"base_weights":[5.8935363E-2,-4.1062802E-2,4.2477876E-1,-3.046875E-1,7.665505E-2,4.7706422E-1,-8.0000006E-2,-7.727273E-2,-2.0560747E-2,7.2000004E-2,1.5209125E-3,2.7941177E-2,7.857143E-2],"categories":[],"categories_nodes":[],"categories_segments":[],"categories_sizes":[],"default_left":[0,0,0,0,0,0,0,0,0,0,0,0,0],"id":24,"left_children":[1,3,5,7,9,11,-1,-1,-1,-1,-1,-1,-1],"loss_changes":[1.9260452E1,1.2871156E1,7.617958E0,5.7769165E0,1.1334426E1,6.4300575E0,0E0,0E0,0E0,0E0,0E0,0E0,0E0],"parents":[2147483647,0,0,1,1,2,2,3,3,4,4,5,5],"right_children":[2,4,6,8,10,12,-1,-1,-1,-1,-1,-1,-1],"split_conditions":[3.8543534E-2,4.222948E1,2.1941805E1,6.2034916E1,1.1918973E0,6.2306877E1,-1.8662907E-3,-1.8290322E-3,-3.170281E-4,8.673804E-4,7.3704987E-6,8.080762E-4,1.8502787E-3],"split_indices":[9,8,6,7,6,8,0,0,0,0,0,0,0],"split_type":[0,0,0,0,0,0,0,0,0,0,0,0,0],"sum_hessian":[5.25E2,4.13E2,1.12E2,1.27E2,2.86E2,1.08E2,4E0,2.1E1,1.06E2,2.4E1,2.62E2,6.7E1,4.1E1],"tree_param":{"num_deleted":"0","num_feature":"11","num_nodes":"13","size_leaf_vector":"1"}},{"base_weights":[4.3726236E-2,-2.1505376E-2,5.322581E-1,-4.9122807E-1,4.400978E-2,9.583333E-2,2.5641027E-1,7.1428576E-3,-6.5909095E-2,4.5783132E-2,-6.116208E-3,-4.1666668E-2,5.357143E-2],"categories":[],"categories_nodes":[],"categories_segments":[],"categories_sizes":[],"default_left":[0,0,0,0,0,0,0,0,0,0,0,0,0],"id":25,"left_children":[1,3,5,7,9,-1,11,-1,-1,-1,-1,-1,-1],"loss_changes":[1.6773867E1,1.4331509E1,7.041252E0,5.4306784E0,1.7828657E1,0E0,7.5549445E0,0E0,0E0,0E0,0E0,0E0,0E0],"parents":[2147483647,0,0,1,1,2,2,3,3,4,4,6,6],"right_children":[2,4,6,8,10,-1,12,-1,-1,-1,-1,-1,-1],"split_conditions":[6.830116E-2,4.4441788E1,1.0192422E1,9.397154E0,1.1722667E2,3.135925E-3,1.6177677E1,4.67971E-6,-1.6436027E-3,8.9423294E-4,-9.457292E-5,-1.2842481E-3,1.4044911E-3],"split_indices":[9,7,6,7,7,0,6,0,0,0,0,0,0],"split_type":[0,0,0,0,0,0,0,0,0,0,0,0,0],"sum_hessian":[5.25E2,4.64E2,6.1E1,5.6E1,4.08E2,2.3E1,3.8E1,1.3E1,4.3E1,8.2E1,3.26E2,1.1E1,2.7E1],"tree_param":{"num_deleted":"0","num_feature":"11","num_nodes":"13","size_leaf_vector":"1"}},{"base_weights":[4.3726236E-2,-1.1469534E-1,2.2177419E-1,3.4042552E-1,-2.0600858E-1,8.333333E-1,9.6618354E-2,5.8064517E-2,-1.1764706E-2,-4.1E-2,-5.223881E-3,1.6666668E-2,9.189189E-2,-2.0253165E-2,2.7906979E-2],"categories":[],"categories_nodes":[],"categories_segments":[],"categories_sizes":[],"default_left":[0,0,0,0,0,0,0,0,0,0,0,0,0,0,0],"id":26,"left_children":[1,3,5,7,9,11,13,-1,-1,-1,-1,-1,-1,-1,-1],"loss_changes":[1.4862127E1,1.1664969E1,1.8901453E1,5.2400985E0,7.287258E0,2.2432442E0,1.13546505E1,0E0,0E0,0E0,0E0,0E0,0E0,0E0,0E0],"parents":[2147483647,0,0,1,1,2,2,3,3,4,4,5,5,6,6],"right_children":[2,4,6,8,10,12,14,-1,-1,-1,-1,-1,-1,-1,-1],"split_conditions":[8.840228E0,-4.774309E-2,1.0192422E1,2.3748738E2,4.9222485E1,2.7718594E1,1.3937764E1,7.8328775E-4,-1.5625391E-4,-1.3216085E-3,-6.7998284E-5,1.3423711E-3,2.4930793E-3,-2.2355664E-4,7.77334E-4],"split_indices":[6,10,6,7,8,8,6,0,0,0,0,0,0,0,0],"split_type":[0,0,0,0,0,0,0,0,0,0,0,0,0,0,0],"sum_hessian":[5.25E2,2.78E2,2.47E2,4.6E1,2.32E2,4.1E1,2.06E2,3E1,1.6E1,9.9E1,1.33E2,5E0,3.6E1,7.8E1,1.28E2],"tree_param":{"num_deleted":"0","num_feature":"11","num_nodes":"15","size_leaf_vector":"1"}},{"base_weights":[2.851711E-2,-3.1460676E-1,9.8173514E-2,-6.041667E-1,2.3809524E-2,7.2131145E-1,-2.6455026E-3,2.5E-2,-6.666667E-2,-8.888889E-2,2.647059E-2,7.758621E-2,-2.5E-2,-1.3703704E-2,3.3027526E-2],"categories":[],"categories_nodes":[],"categories_segments":[],"categories_sizes":[],"default_left":[0,0,0,0,0,0,0,0,0,0,0,0,0,0,0],"id":27,"left_children":[1,3,5,7,9,11,13,-1,-1,-1,-1,-1,-1,-1,-1],"loss_changes":[1.2602694E1,8.735655E0,2.751889E1,2.729166E0,9.469654E0,3.4260864E0,1.6957632E1,0E0,0E0,0E0,0E0,0E0,0E0,0E0,0E0],"parents":[2147483647,0,0,1,1,2,2,3,3,4,4,5,5,6,6],"right_children":[2,4,6,8,10,12,14,-1,-1,-1,-1,-1,-1,-1,-1],"split_conditions":[6.477648E1,1.3707922E-2,1.10007484E2,2.0215833E-1,-8.32985E-2,2.1941805E1,2.8977502E2,1.2703762E-4,-1.0147706E-3,-5.339136E-3,1.6553514E-4,1.6704099E-3,-1.7869826E-3,-2.5484787E-4,3.9664804E-4],"split_indices":[7,10,7,6,9,6,7,0,0,0,0,0,0,0,0],"split_type":[0,0,0,0,0,0,0,0,0,0,0,0,0,0,0],"sum_hessian":[5.25E2,8.8E1,4.37E2,4.7E1,4.1E1,6E1,3.77E2,3E0,4.4E1,8E0,3.3E1,5.7E1,3E0,2.69E2,1.08E2],"tree_param":{"num_deleted":"0","num_feature":"11","num_nodes":"15","size_leaf_vector":"1"}},{"base_weights":[3.2319393E-2,-1.6203703E-1,1.6720258E-1,-2.0289855E-1,7E-1,-5.5E-1,2.1575342E-1,-7.916667E-2,-1.25E-2,8.888889E-2,-5E-2,-8.235294E-2,7.5E-2,5.3030304E-3,3.478261E-2],"categories":[],"categories_nodes":[],"categories_segments":[],"categories_sizes":[],"default_left":[0,0,0,0,0,0,0,0,0,0,0,0,0,0,0],"id":28,"left_children":[1,3,5,7,9,11,13,-1,-1,-1,-1,-1,-1,-1,-1],"loss_changes":[1.38164E1,7.7504435E0,1.0947932E1,9.394929E0,2.711111E0,7.729411E0,6.2570066E0,0E0,0E0,0E0,0E0,0E0,0E0,0E0,0E0],"parents":[2147483647,0,0,1,1,2,2,3,3,4,4,5,5,6,6],"right_children":[2,4,6,8,10,12,14,-1,-1,-1,-1,-1,-1,-1,-1],"split_conditions":[4.9591568E1,1.1838082E-1,-1.1883157E-1,4.3197926E1,1.2476473E-1,6.2130527E0,6E0,-1.3475288E-3,-1.8869304E-4,1.7871574E-3,-1.6442314E-4,-4.6447422E-3,3.5994276E-4,5.9511513E-5,6.8549806E-4],"split_indices":[8,10,9,7,9,6,3,0,0,0,0,0,0,0,0],"split_type":[0,0,0,0,0,0,0,0,0,0,0,0,0,0,0],"sum_hessian":[5.25E2,2.15E2,3.1E2,2.06E2,9E0,1.9E1,2.91E2,2.3E1,1.83E2,8E0,1E0,1.6E1,3E0,1.31E2,1.6E2],"tree_param":{"num_deleted":"0","num_feature":"11","num_nodes":"15","size_leaf_vector":"1"}},{"base_weights":[2.471483E-2,-6.0714287E-1,6.012024E-2,-8E-1,7.5E-2,-1.0628019E-1,1.7747441E-1,5E-2,-8.75E-2,-1.5979381E-2,6.428572E-2,1.5267176E-3,3.0674849E-2],"categories":[],"categories_nodes":[],"categories_segments":[],"categories_sizes":[],"default_left":[0,0,0,0,0,0,0,0,0,0,0,0,0],"id":29,"left_children":[1,3,5,7,-1,9,11,-1,-1,-1,-1,-1,-1],"loss_changes":[1.1803742E1,7.9285717E0,9.7632265E0,2.875E0,0E0,8.401158E0,6.139289E0,0E0,0E0,0E0,0E0,0E0,0E0],"parents":[2147483647,0,0,1,1,2,2,3,3,5,5,6,6],"right_children":[2,4,6,8,-1,10,12,-1,-1,-1,-1,-1,-1],"split_conditions":[-1.2149073E-1,6.2130527E0,4.9591568E1,1.2E1,3.2394828E-4,9.5415846E-2,8.242014E0,1.852237E-3,-4.591136E-3,-2.457265E-4,1.2104498E-3,1.4562067E-5,6.470652E-4],"split_indices":[9,6,8,4,0,10,6,0,0,0,0,0,0],"split_type":[0,0,0,0,0,0,0,0,0,0,0,0,0],"sum_hessian":[5.25E2,2.7E1,4.98E2,2.4E1,3E0,2.06E2,2.92E2,1E0,2.3E1,1.93E2,1.3E1,1.3E2,1.62E2],"tree_param":{"num_deleted":"0","num_feature":"11","num_nodes":"13","size_leaf_vector":"1"}},{"base_weights":[1.7110266E-2,-3.4567901E-1,8.2959644E-2,2.1428572E-1,-4.5588234E-1,5.6790125E-1,-2.4590164E-2,-5E-2,6.666667E-2,-6.382979E-2,-4.545455E-3,-2.857143E-2,6.4E-2,-1.5891474E-2,2.9357797E-2],"categories":[],"categories_nodes":[],"categories_segments":[],"categories_sizes":[],"default_left":[0,0,0,0,0,0,0,0,0,0,0,0,0,0,0],"id":30,"left_children":[1,3,5,7,9,11,13,-1,-1,-1,-1,-1,-1,-1,-1],"loss_changes":[1.2594526E1,5.096198E0,2.327526E1,4.857143E0,5.0620365E0,5.1679707E0,1.5688687E1,0E0,0E0,0E0,0E0,0E0,0E0,0E0,0E0],"parents":[2147483647,0,0,1,1,2,2,3,3,4,4,5,5,6,6],"right_children":[2,4,6,8,10,12,14,-1,-1,-1,-1,-1,-1,-1,-1],"split_conditions":[5.7285282E1,9.397154E0,1.1722667E2,4.1576195E0,3.5894845E-2,-8.22059E-2,2.8977502E2,-5.749506E-4,6.782938E-4,-6.4502127E-4,-8.229762E-5,-5.395193E-4,1.1660397E-3,-3.2606648E-4,2.9232615E-4],"split_indices":[7,7,7,6,10,9,7,0,0,0,0,0,0,0,0],"split_type":[0,0,0,0,0,0,0,0,0,0,0,0,0,0,0],"sum_hessian":[5.25E2,8E1,4.45E2,1.3E1,6.7E1,8E1,3.65E2,5E0,8E0,4.6E1,2.1E1,6E0,7.4E1,2.57E2,1.08E2],"tree_param":{"num_deleted":"0","num_feature":"11","num_nodes":"15","size_leaf_vector":"1"}},{"base_weights":[1.7110266E-2,-2.8947368E-1,1.0169491E-1,-3.9E-1,4E-1,5.1630434E-2,5E-1,8.3333336E-2,-4.631579E-2,6.1538465E-2,-6.666667E-2,-6.584362E-3,2.777778E-2,-1.25E-2,6.1538465E-2],"categories":[],"categories_nodes":[],"categories_segments":[],"categories_sizes":[],"default_left":[0,0,0,0,0,0,0,0,0,0,0,0,0,0,0],"id":31,"left_children":[1,3,5,7,9,11,13,-1,-1,-1,-1,-1,-1,-1,-1],"loss_changes":[1.3669826E1,8.057369E0,8.209791E0,9.335614E0,3.8564105E0,9.794743E0,3.3942308E0,0E0,0E0,0E0,0E0,0E0,0E0,0E0,0E0],"parents":[2147483647,0,0,1,1,2,2,3,3,4,4,5,5,6,6],"right_children":[2,4,6,8,10,12,14,-1,-1,-1,-1,-1,-1,-1,-1],"split_conditions":[-6.536213E-2,2.9564493E2,8.108401E-2,-3.7795357E-2,-7.4272566E-2,1.3937764E1,2.7718594E1,1.3836697E-3,-1.4364303E-3,2.593616E-4,-1.22805E-3,-8.0547296E-5,6.542422E-4,-2.1233135E-3,9.600956E-4],"split_indices":[9,7,10,10,9,6,8,0,0,0,0,0,0,0,0],"split_type":[0,0,0,0,0,0,0,0,0,0,0,0,0,0,0],"sum_hessian":[5.25E2,1.13E2,4.12E2,9.9E1,1.4E1,3.67E2,4.5E1,5E0,9.4E1,1.2E1,2E0,2.42E2,1.25E2,7E0,3.8E1],"tree_param":{"num_deleted":"0","num_feature":"11","num_nodes":"15","size_leaf_vector":"1"}},{"base_weights":[3.2319393E-2,-6.0714287E-1,6.8136275E-2,-8E-1,7.5E-2,-1.0628019E-1,1.9112629E-1,5E-2,-8.75E-2,-1.7679559E-2,3.7037037E-2,2.3791822E-2,-3.2E-2],"categories":[],"categories_nodes":[],"categories_segments":[],"categories_sizes":[],"default_left":[0,0,0,0,0,0,0,0,0,0,0,0,0],"id":32,"left_children":[1,3,5,7,-1,9,11,-1,-1,-1,-1,-1,-1],"loss_changes":[1.2088632E1,7.9285717E0,1.0724603E1,2.875E0,0E0,7.022998E0,7.0836945E0,0E0,0E0,0E0,0E0,0E0,0E0],"parents":[2147483647,0,0,1,1,2,2,3,3,5,5,6,6],"right_children":[2,4,6,8,-1,10,12,-1,-1,-1,-1,-1,-1],"split_conditions":[-1.2149073E-1,6.2130527E0,4.9591568E1,1.2E1,2.3638457E-4,3.1433768E2,8.525359E1,1.8432628E-3,-4.059158E-3,-2.2998928E-4,6.0932146E-4,3.8878628E-4,-1.718347E-4],"split_indices":[9,6,8,4,0,7,8,0,0,0,0,0,0],"split_type":[0,0,0,0,0,0,0,0,0,0,0,0,0],"sum_hessian":[5.25E2,2.7E1,4.98E2,2.4E1,3E0,2.06E2,2.92E2,1E0,2.3E1,1.8E2,2.6E1,2.68E2,2.4E1],"tree_param":{"num_deleted":"0","num_feature":"11","num_nodes":"13","size_leaf_vector":"1"}},{"base_weights":[3.2319393E-2,-6.5E-1,5.91716E-2,-8.333333E-1,6.666667E-2,2.635135E-1,-2.5E-2,5E-2,-9.411765E-2,-2.6229506E-2,6.25E-2,-3.888889E-2,9.594097E-3],"categories":[],"categories_nodes":[],"categories_segments":[],"categories_sizes":[],"default_left":[0,0,0,0,0,0,0,0,0,0,0,0,0],"id":33,"left_children":[1,3,5,7,-1,9,11,-1,-1,-1,-1,-1,-1],"loss_changes":[9.675717E0,5.383333E0,8.726879E0,3.0588236E0,0E0,2.8294693E1,1.5880575E1,0E0,0E0,0E0,0E0,0E0,0E0],"parents":[2147483647,0,0,1,1,2,2,3,3,5,5,6,6],"right_children":[2,4,6,8,-1,10,12,-1,-1,-1,-1,-1,-1],"split_conditions":[-1.38393E-1,6.136125E0,1.129365E2,1.2E1,1.5412428E-3,4.4441788E1,1.7321378E2,1.6589363E-3,-4.749473E-3,-2.492955E-4,6.724025E-4,-6.7376124E-4,1.1428176E-4],"split_indices":[9,6,7,4,0,7,7,0,0,0,0,0,0],"split_type":[0,0,0,0,0,0,0,0,0,0,0,0,0],"sum_hessian":[5.25E2,1.9E1,5.06E2,1.7E1,2E0,1.47E2,3.59E2,1E0,1.6E1,6E1,8.7E1,8.9E1,2.7E2],"tree_param":{"num_deleted":"0","num_feature":"11","num_nodes":"13","size_leaf_vector":"1"}},{"base_weights":[2.471483E-2,-1.2244898E-1,1.5248227E-1,-2.1761657E-1,2.264151E-1,6.818182E-2,4.4444445E-1,4.2105265E-2,-2.857143E-2,8.3333336E-2,-8.333334E-3,6.5E-2,9.950249E-4,5.1666666E-2,-7.5E-2],"categories":[],"categories_nodes":[],"categories_segments":[],"categories_sizes":[],"default_left":[0,0,0,0,0,0,0,0,0,0,0,0,0,0,0],"id":34,"left_children":[1,3,5,7,9,11,13,-1,-1,-1,-1,-1,-1,-1,-1],"loss_changes":[9.908914E0,8.183408E0,6.9104342E0,8.514238E0,1.0033019E1,7.447173E0,5.8222218E0,0E0,0E0,0E0,0E0,0E0,0E0,0E0,0E0],"parents":[2147483647,0,0,1,1,2,2,3,3,4,4,5,5,6,6],"right_children":[2,4,6,8,10,12,14,-1,-1,-1,-1,-1,-1,-1,-1],"split_conditions":[5.3005554E1,1.5305233E1,3.8543534E-2,-5.1301334E-2,1.8365578E1,1.1918973E0,2.1941805E1,3.5849903E-4,-6.2560785E-4,1.0252066E-3,-2.3880429E-4,9.096157E-4,1.7179735E-5,9.7003655E-4,-1.998669E-3],"split_indices":[8,6,9,10,6,6,6,0,0,0,0,0,0,0,0],"split_type":[0,0,0,0,0,0,0,0,0,0,0,0,0,0,0],"sum_hessian":[5.25E2,2.44E2,2.81E2,1.92E2,5.2E1,2.19E2,6.2E1,1.8E1,1.74E2,1.7E1,3.5E1,1.9E1,2E2,5.9E1,3E0],"tree_param":{"num_deleted":"0","num_feature":"11","num_nodes":"15","size_leaf_vector":"1"}},{"base_weights":[3.2319393E-2,-7.5E-1,5.0485436E-2,5E-2,-9.090909E-2,-2.8333333E-1,9.429824E-2,3.5714287E-2,-4.680851E-2,5.1612902E-2,-1.3736264E-3],"categories":[],"categories_nodes":[],"categories_segments":[],"categories_sizes":[],"default_left":[0,0,0,0,0,0,0,0,0,0,0],"id":35,"left_children":[1,3,5,-1,-1,7,9,-1,-1,-1,-1],"loss_changes":[7.513191E0,2.840909E0,7.5588694E0,0E0,0E0,7.26692E0,2.078805E1,0E0,0E0,0E0,0E0],"parents":[2147483647,0,0,1,1,2,2,5,5,6,6],"right_children":[2,4,6,-1,-1,8,10,-1,-1,-1,-1],"split_conditions":[-1.5348336E-1,1.2E1,4.3197926E1,1.4913243E-3,-5.235206E-3,9.397154E0,1.129365E2,9.570457E-5,-5.9125386E-4,5.563991E-4,-1.9187108E-5],"split_indices":[9,4,7,0,0,7,7,0,0,0,0],"split_type":[0,0,0,0,0,0,0,0,0,0,0],"sum_hessian":[5.25E2,1.1E1,5.14E2,1E0,1E1,5.9E1,4.55E2,1.3E1,4.6E1,9.2E1,3.63E2],"tree_param":{"num_deleted":"0","num_feature":"11","num_nodes":"11","size_leaf_vector":"1"}},{"base_weights":[1.7110266E-2,-1.0566038E-1,1.4122137E-1,4.3333334E-1,-1.7372881E-1,5.322581E-1,1.9900497E-2,-7.5E-2,5.9259262E-2,-4.375E-3,-4.4155847E-2,-1.3333335E-2,7.291667E-2,-5E-2,1.1046512E-2],"categories":[],"categories_nodes":[],"categories_segments":[],"categories_sizes":[],"default_left":[0,0,0,0,0,0,0,0,0,0,0,0,0,0,0],"id":36,"left_children":[1,3,5,7,9,11,13,-1,-1,-1,-1,-1,-1,-1,-1],"loss_changes":[8.029689E0,9.797724E0,1.2418926E1,6.0981483E0,8.196356E0,8.222984E0,9.519235E0,0E0,0E0,0E0,0E0,0E0,0E0,0E0,0E0],"parents":[2147483647,0,0,1,1,2,2,3,3,4,4,5,5,6,6],"right_children":[2,4,6,8,10,12,14,-1,-1,-1,-1,-1,-1,-1,-1],"split_conditions":[8.499409E0,8.8109165E-1,1.0386666E1,1.925167E1,2.4635284E2,3.0427048E1,1.1265822E1,-1.1649914E-4,8.0088247E-4,-2.7536973E-5,-8.96883E-4,-7.218197E-4,9.3743653E-4,-5.827138E-4,1.6827583E-4],"split_indices":[6,6,6,7,7,8,6,0,0,0,0,0,0,0,0],"split_type":[0,0,0,0,0,0,0,0,0,0,0,0,0,0,0],"sum_hessian":[5.25E2,2.64E2,2.61E2,2.9E1,2.35E2,6.1E1,2E2,3E0,2.6E1,1.59E2,7.6E1,1.4E1,4.7E1,2.9E1,1.71E2],"tree_param":{"num_deleted":"0","num_feature":"11","num_nodes":"15","size_leaf_vector":"1"}},{"base_weights":[2.0912547E-2,-4.0669855E-2,2.5688073E-1,7.4074075E-2,-6.3235295E-1,3.655914E-1,-3.529412E-1,-5.2434457E-3,4.7058824E-2,-8.83721E-2,-1.923077E-2,4.269663E-2,-8.0000006E-2,-8.3333336E-2,-8.333334E-3],"categories":[],"categories_nodes":[],"categories_segments":[],"categories_sizes":[],"default_left":[0,0,0,0,0,0,0,0,0,0,0,0,0,0,0],"id":37,"left_children":[1,3,5,7,9,11,13,-1,-1,-1,-1,-1,-1,-1,-1],"loss_changes":[7.65401E0,2.8425716E1,7.355094E0,1.7631687E1,7.351757E0,6.9946136E0,2.1323528E0,0E0,0E0,0E0,0E0,0E0,0E0,0E0,0E0],"parents":[2147483647,0,0,1,1,2,2,3,3,4,4,5,5,6,6],"right_children":[2,4,6,8,10,12,14,-1,-1,-1,-1,-1,-1,-1,-1],"split_conditions":[2.8977502E2,2.4635284E2,3.5003973E2,1.8500558E2,9.6040945E0,2.0723688E1,-1.5228989E-2,-3.227219E-5,6.5162964E-4,-2.7788756E-3,-5.360436E-4,5.330847E-4,-7.8613835E-4,-3.3476503E-4,-4.266575E-6],"split_indices":[7,7,7,7,6,6,10,0,0,0,0,0,0,0,0],"split_type":[0,0,0,0,0,0,0,0,0,0,0,0,0,0,0],"sum_hessian":[5.25E2,4.17E2,1.08E2,3.5E2,6.7E1,9.2E1,1.6E1,2.66E2,8.4E1,4.2E1,2.5E1,8.8E1,4E0,5E0,1.1E1],"tree_param":{"num_deleted":"0","num_feature":"11","num_nodes":"15","size_leaf_vector":"1"}},{"base_weights":[1.3307985E-2,-7.5E-1,3.1067962E-2,5E-2,-9.090909E-2,-6.437768E-3,3.8E-1,-7.7586207E-3,2.0168068E-2,-8.0000006E-2,5E-2],"categories":[],"categories_nodes":[],"categories_segments":[],"categories_sizes":[],"default_left":[0,0,0,0,0,0,0,0,0,0,0],"id":38,"left_children":[1,3,5,-1,-1,7,9,-1,-1,-1,-1],"loss_changes":[7.1539316E0,2.840909E0,6.7422256E0,0E0,0E0,6.9158506E0,7.48E0,0E0,0E0,0E0,0E0],"parents":[2147483647,0,0,1,1,2,2,5,5,6,6],"right_children":[2,4,6,-1,-1,8,10,-1,-1,-1,-1],"split_conditions":[-1.5348336E-1,1.2E1,8.1816964E-2,1.2797829E-3,-4.5249066E-3,1.4789328E1,6.2130527E0,-5.1980467E-5,5.064675E-4,-2.0470098E-3,7.601366E-4],"split_indices":[9,4,10,0,0,6,6,0,0,0,0],"split_type":[0,0,0,0,0,0,0,0,0,0,0],"sum_hessian":[5.25E2,1.1E1,5.14E2,1E0,1E1,4.65E2,4.9E1,3.47E2,1.18E2,4E0,4.5E1],"tree_param":{"num_deleted":"0","num_feature":"11","num_nodes":"11","size_leaf_vector":"1"}},{"base_weights":[1.3307985E-2,-1.7218544E-1,8.7765954E-2,-2.0408164E-1,8.0000006E-2,1.2857144E-1,-4.4444445E-1,7.5E-2,-2.2916667E-2,-1.754386E-2,1.8707482E-2,-9.090909E-2,-1.1764706E-2],"categories":[],"categories_nodes":[],"categories_segments":[],"categories_sizes":[],"default_left":[0,0,0,0,0,0,0,0,0,0,0,0,0],"id":39,"left_children":[1,3,5,7,-1,9,11,-1,-1,-1,-1,-1,-1],"loss_changes":[7.2799425E0,4.8456273E0,8.222771E0,3.690051E0,0E0,6.2577877E0,3.9928699E0,0E0,0E0,0E0,0E0,0E0,0E0],"parents":[2147483647,0,0,1,1,2,2,3,3,5,5,6,6],"right_children":[2,4,6,8,-1,10,12,-1,-1,-1,-1,-1,-1],"split_conditions":[4.0337425E1,1.1838082E-1,8.525359E1,3.2576665E-1,1.2135912E-3,6.591703E1,8.640596E1,1.9474287E-3,-4.3430348E-4,-1.4109844E-4,2.430968E-4,-7.1227236E-4,-5.618483E-5],"split_indices":[8,10,8,6,0,7,8,0,0,0,0,0,0],"split_type":[0,0,0,0,0,0,0,0,0,0,0,0,0],"sum_hessian":[5.25E2,1.5E2,3.75E2,1.46E2,4E0,3.49E2,2.6E1,3E0,1.43E2,5.6E1,2.93E2,1E1,1.6E1],"tree_param":{"num_deleted":"0","num_feature":"11","num_nodes":"13","size_leaf_vector":"1"}},{"base_weights":[2.851711E-2,-6.5E-1,5.5226825E-2,-8.333333E-1,6.666667E-2,2.3717949E-1,-2.5568182E-2,5E-2,-9.411765E-2,-1.2048193E-2,6.351351E-2,-4.0789474E-2,7.942239E-3],"categories":[],"categories_nodes":[],"categories_segments":[],"categories_sizes":[],"default_left":[0,0,0,0,0,0,0,0,0,0,0,0,0],"id":40,"left_children":[1,3,5,7,-1,9,11,-1,-1,-1,-1,-1,-1],"loss_changes":[9.568595E0,5.383333E0,7.4594045E0,3.0588236E0,0E0,2.2280529E1,1.4161916E1,0E0,0E0,0E0,0E0,0E0,0E0],"parents":[2147483647,0,0,1,1,2,2,3,3,5,5,6,6],"right_children":[2,4,6,8,-1,10,12,-1,-1,-1,-1,-1,-1],"split_conditions":[-1.38393E-1,6.136125E0,1.1929542E2,1.2E1,1.3145871E-3,6.477648E1,1.6516403E2,1.1274945E-3,-3.3108448E-3,-5.2364263E-5,1.052874E-3,-8.1812043E-4,9.397008E-5],"split_indices":[9,6,7,4,0,7,7,0,0,0,0,0,0],"split_type":[0,0,0,0,0,0,0,0,0,0,0,0,0],"sum_hessian":[5.25E2,1.9E1,5.06E2,1.7E1,2E0,1.55E2,3.51E2,1E0,1.6E1,8.2E1,7.3E1,7.5E1,2.76E2],"tree_param":{"num_deleted":"0","num_feature":"11","num_nodes":"13","size_leaf_vector":"1"}},{"base_weights":[9.505703E-3,-2.9473685E-2,3.653846E-1,-7.692308E-1,-8.639309E-3,-8.0000006E-2,4.7916666E-1,5E-2,-9.166667E-2,-1.4054054E-2,7.885305E-3,6.857143E-2,-7.1428576E-3],"categories":[],"categories_nodes":[],"categories_segments":[],"categories_sizes":[],"default_left":[0,0,0,0,0,0,0,0,0,0,0,0,0],"id":41,"left_children":[1,3,5,7,9,-1,11,-1,-1,-1,-1,-1,-1],"loss_changes":[7.3074102E0,7.3142333E0,7.2785254E0,2.8910255E0,5.354264E0,0E0,5.507739E0,0E0,0E0,0E0,0E0,0E0,0E0],"parents":[2147483647,0,0,1,1,2,2,3,3,4,4,6,6],"right_children":[2,4,6,8,10,-1,12,-1,-1,-1,-1,-1,-1],"split_conditions":[8.1816964E-2,-1.4650974E-1,5.91245E0,1.2E1,4.9088516E1,-2.1129083E-3,1.0192422E1,1.0147449E-3,-4.1142493E-3,-1.2661751E-4,1.08959575E-4,1.5540274E-3,-1.3267994E-4],"split_indices":[10,9,6,4,8,0,6,0,0,0,0,0,0],"split_type":[0,0,0,0,0,0,0,0,0,0,0,0,0],"sum_hessian":[5.25E2,4.74E2,5.1E1,1.2E1,4.62E2,4E0,4.7E1,1E0,1.1E1,1.84E2,2.78E2,3.4E1,1.3E1],"tree_param":{"num_deleted":"0","num_feature":"11","num_nodes":"13","size_leaf_vector":"1"}},{"base_weights":[5.7034222E-3,-4.5766592E-2,2.5555557E-1,6.837607E-2,-5.0574714E-1,-3.5E-1,4.225352E-1,-5.9925094E-3,4.7058824E-2,-6.805556E-2,3.125E-2,2.857143E-2,-6.428572E-2,5.818182E-2,-1.1764706E-2],"categories":[],"categories_nodes":[],"categories_segments":[],"categories_sizes":[],"default_left":[0,0,0,0,0,0,0,0,0,0,0,0,0,0,0],"id":42,"left_children":[1,3,5,7,9,11,13,-1,-1,-1,-1,-1,-1,-1,-1],"loss_changes":[6.775999E0,2.2978569E1,9.248278E0,1.8141306E1,1.2656847E1,3.9071429E0,6.1774197E0,0E0,0E0,0E0,0E0,0E0,0E0,0E0,0E0],"parents":[2147483647,0,0,1,1,2,2,3,3,4,4,5,5,6,6],"right_children":[2,4,6,8,10,12,14,-1,-1,-1,-1,-1,-1,-1,-1],"split_conditions":[2.9845236E2,2.4635284E2,-3.5241745E-2,1.8500558E2,1.5494017E1,1.1918973E0,3.4852533E2,-4.0673465E-5,5.261396E-4,-1.791994E-3,1.5200966E-3,2.0480888E-4,-5.204469E-4,7.4861833E-4,-5.0932915E-5],"split_indices":[7,7,10,7,6,6,7,0,0,0,0,0,0,0,0],"split_type":[0,0,0,0,0,0,0,0,0,0,0,0,0,0,0],"sum_hessian":[5.25E2,4.36E2,8.9E1,3.5E2,8.6E1,1.9E1,7E1,2.66E2,8.4E1,7.1E1,1.5E1,6E0,1.3E1,5.4E1,1.6E1],"tree_param":{"num_deleted":"0","num_feature":"11","num_nodes":"15","size_leaf_vector":"1"}},{"base_weights":[1.7110266E-2,-1.0612245E-1,1.2411348E-1,-3.4848484E-1,-1.6666668E-2,1.7578125E-1,-3.7037036E-1,7.5E-2,-4.1269843E-2,4.5833334E-2,-8.917198E-3,7.692308E-2,1.4344262E-2,2.2222223E-2,-6.315789E-2],"categories":[],"categories_nodes":[],"categories_segments":[],"categories_sizes":[],"default_left":[0,0,0,0,0,0,0,0,0,0,0,0,0,0,0],"id":43,"left_children":[1,3,5,7,9,11,13,-1,-1,-1,-1,-1,-1,-1,-1],"loss_changes":[6.949163E0,5.3059683E0,7.2698884E0,4.965007E0,6.240074E0,4.802643E0,4.319688E0,0E0,0E0,0E0,0E0,0E0,0E0,0E0,0E0],"parents":[2147483647,0,0,1,1,2,2,3,3,4,4,5,5,6,6],"right_children":[2,4,6,8,10,12,14,-1,-1,-1,-1,-1,-1,-1,-1],"split_conditions":[5.3005554E1,-5.0817E-2,8.525359E1,-5.24801E-2,-4.095603E-2,8.8109165E-1,9.7584206E1,4.1085036E-4,-1.1108652E-3,1.2588837E-4,-5.0436985E-5,1.1660663E-3,1.1247844E-4,4.184502E-5,-1.560622E-3],"split_indices":[8,9,8,10,9,6,7,0,0,0,0,0,0,0,0],"split_type":[0,0,0,0,0,0,0,0,0,0,0,0,0,0,0],"sum_hessian":[5.25E2,2.44E2,2.81E2,6.5E1,1.79E2,2.55E2,2.6E1,3E0,6.2E1,2.3E1,1.56E2,1.2E1,2.43E2,8E0,1.8E1],"tree_param":{"num_deleted":"0","num_feature":"11","num_nodes":"15","size_leaf_vector":"1"}},{"base_weights":[2.471483E-2,-1.2631579E-2,3.653846E-1,-1.5263158E-1,8.041958E-2,-8.0000006E-2,4.7916666E-1,-5.666667E-2,-7.4534165E-3,1.25E-2,-4.347826E-2,-1.25E-2,5.8536585E-2],"categories":[],"categories_nodes":[],"categories_segments":[],"categories_sizes":[],"default_left":[0,0,0,0,0,0,0,0,0,0,0,0,0],"id":44,"left_children":[1,3,5,7,9,-1,11,-1,-1,-1,-1,-1,-1],"loss_changes":[6.696804E0,6.2001767E0,7.2785254E0,6.1014276E0,6.6231756E0,0E0,3.1529474E0,0E0,0E0,0E0,0E0,0E0,0E0],"parents":[2147483647,0,0,1,1,2,2,3,3,4,4,6,6],"right_children":[2,4,6,8,10,-1,12,-1,-1,-1,-1,-1,-1],"split_conditions":[8.1816964E-2,4.9088516E1,5.91245E0,5.6599422E1,8.525359E1,-1.8476304E-3,2.7718594E1,-6.470483E-4,-4.732879E-5,1.0775179E-4,-3.3722687E-4,-1.7962098E-3,4.6821922E-4],"split_indices":[10,8,6,7,8,0,8,0,0,0,0,0,0],"split_type":[0,0,0,0,0,0,0,0,0,0,0,0,0],"sum_hessian":[5.25E2,4.74E2,5.1E1,1.89E2,2.85E2,4E0,4.7E1,2.9E1,1.6E2,2.63E2,2.2E1,7E0,4E1],"tree_param":{"num_deleted":"0","num_feature":"11","num_nodes":"13","size_leaf_vector":"1"}},{"base_weights":[1.7110266E-2,5.6666666E-1,-1.6096579E-2,1.3333334E-1,9.375E-2,-2.2485207E-1,9.118541E-2,3.0769233E-2,-6.666667E-2,-8.208956E-3,-7.5E-2,7.782101E-4,3.8356166E-2],"categories":[],"categories_nodes":[],"categories_segments":[],"categories_sizes":[],"default_left":[0,0,0,0,0,0,0,0,0,0,0,0,0],"id":45,"left_children":[1,3,5,7,-1,9,11,-1,-1,-1,-1,-1,-1],"loss_changes":[9.608113E0,4.695833E0,1.1151168E1,2.297436E0,0E0,1.2608606E1,8.019728E0,0E0,0E0,0E0,0E0,0E0,0E0],"parents":[2147483647,0,0,1,1,2,2,3,3,5,5,6,6],"right_children":[2,4,6,8,-1,10,12,-1,-1,-1,-1,-1,-1],"split_conditions":[8.8109165E-1,-5.5152312E-2,6.281611E0,2.9957635E2,1.0756612E-3,5.189953E0,2.8823978E2,4.689429E-4,-3.8975358E-4,-4.1440875E-5,-2.0222848E-3,1.2620073E-5,6.2119786E-4],"split_indices":[6,10,6,7,0,6,7,0,0,0,0,0,0],"split_type":[0,0,0,0,0,0,0,0,0,0,0,0,0],"sum_hessian":[5.25E2,2.9E1,4.96E2,1.4E1,1.5E1,1.68E2,3.28E2,1.2E1,2E0,1.33E2,3.5E1,2.56E2,7.2E1],"tree_param":{"num_deleted":"0","num_feature":"11","num_nodes":"13","size_leaf_vector":"1"}},{"base_weights":[9.505703E-3,-1.8656716E-1,7.633588E-2,-3.857143E-1,3.076923E-2,1.8623482E-1,-1.08843535E-1,-1.3953489E-2,-7.5E-2,5.6E-2,-2.9268293E-2,7.7319588E-3,5.740741E-2,-5.322581E-2,1.9767443E-2],"categories":[],"categories_nodes":[],"categories_segments":[],"categories_sizes":[],"default_left":[0,0,0,0,0,0,0,0,0,0,0,0,0,0,0],"id":46,"left_children":[1,3,5,7,9,11,13,-1,-1,-1,-1,-1,-1,-1,-1],"loss_changes":[6.906727E0,5.811645E0,8.018222E0,6.172924E0,1.1290657E1,1.0389289E1,1.9183483E1,0E0,0E0,0E0,0E0,0E0,0E0,0E0,0E0],"parents":[2147483647,0,0,1,1,2,2,3,3,4,4,5,5,6,6],"right_children":[2,4,6,8,10,12,14,-1,-1,-1,-1,-1,-1,-1,-1],"split_conditions":[3.8548397E1,1.6838318E2,2.364032E2,1.129365E2,2.4926938E2,1.8500558E2,2.8977502E2,-6.5026434E-5,-1.8400177E-3,5.044964E-4,-5.093206E-4,5.56726E-5,8.489966E-4,-1.2645301E-3,2.7108865E-4],"split_indices":[8,7,7,7,7,7,7,0,0,0,0,0,0,0,0],"split_type":[0,0,0,0,0,0,0,0,0,0,0,0,0,0,0],"sum_hessian":[5.25E2,1.33E2,3.92E2,6.9E1,6.4E1,2.46E2,1.46E2,4.2E1,2.7E1,2.4E1,4E1,1.93E2,5.3E1,6.1E1,8.5E1],"tree_param":{"num_deleted":"0","num_feature":"11","num_nodes":"15","size_leaf_vector":"1"}},{"base_weights":[5.7034222E-3,7.977208E-2,-1.4204545E-1,-2.2140222E-2,4.1975307E-1,-5.441176E-1,1.10091746E-1,1.3714286E-2,-3.0927835E-2,2.857143E-2,8.421053E-2,-7.272728E-2,2.1428572E-2,-2.7027026E-2,3.0136988E-2],"categories":[],"categories_nodes":[],"categories_segments":[],"categories_sizes":[],"default_left":[0,0,0,0,0,0,0,0,0,0,0,0,0,0,0],"id":47,"left_children":[1,3,5,7,9,11,13,-1,-1,-1,-1,-1,-1,-1,-1],"loss_changes":[5.7676444E0,1.2170828E1,1.7902317E1,1.2436938E1,4.3449364E0,9.601414E0,8.011739E0,0E0,0E0,0E0,0E0,0E0,0E0,0E0,0E0],"parents":[2147483647,0,0,1,1,2,2,3,3,4,4,5,5,6,6],"right_children":[2,4,6,8,10,12,14,-1,-1,-1,-1,-1,-1,-1,-1],"split_conditions":[2.4635284E2,1.8791164E2,2.8977502E2,1.2689453E2,1.52311E1,1.2096553E1,6.2269554E0,7.588356E-5,-4.5980682E-4,2.8078558E-4,3.1103694E-3,-2.152117E-3,4.621074E-5,-7.209913E-5,5.3196907E-4],"split_indices":[7,7,7,7,6,6,6,0,0,0,0,0,0,0,0],"split_type":[0,0,0,0,0,0,0,0,0,0,0,0,0,0,0],"sum_hessian":[5.25E2,3.5E2,1.75E2,2.7E2,8E1,6.7E1,1.08E2,1.74E2,9.6E1,6.2E1,1.8E1,5.4E1,1.3E1,3.6E1,7.2E1],"tree_param":{"num_deleted":"0","num_feature":"11","num_nodes":"15","size_leaf_vector":"1"}},{"base_weights":[2.471483E-2,-6.0975607E-3,4.5714286E-1,-7.219251E-2,2.0168068E-1,-3E-1,7.307692E-1,1.885246E-2,-1.9762846E-2,-5.2631583E-2,3.3663366E-2,2.5E-2,-5.714286E-2,8.0000006E-2,-5E-2],"categories":[],"categories_nodes":[],"categories_segments":[],"categories_sizes":[],"default_left":[0,0,0,0,0,0,0,0,0,0,0,0,0,0,0],"id":48,"left_children":[1,3,5,7,9,11,13,-1,-1,-1,-1,-1,-1,-1,-1],"loss_changes":[7.011286E0,6.771241E0,7.470329E0,1.2268291E1,1.1868366E1,1.6357144E0,2.615385E0,0E0,0E0,0E0,0E0,0E0,0E0,0E0,0E0],"parents":[2147483647,0,0,1,1,2,2,3,3,4,4,5,5,6,6],"right_children":[2,4,6,8,10,12,14,-1,-1,-1,-1,-1,-1,-1,-1],"split_conditions":[1.02436736E-1,1.4789328E1,6.37404E-2,1.2689453E2,7.14202E1,5.5848087E1,1.0263541E1,7.879623E-5,-2.5653504E-4,-8.714374E-4,5.933959E-4,6.193668E-5,-9.676354E-4,2.0567707E-3,-1.4414373E-3],"split_indices":[10,6,9,7,7,8,6,0,0,0,0,0,0,0,0],"split_type":[0,0,0,0,0,0,0,0,0,0,0,0,0,0,0],"sum_hessian":[5.25E2,4.91E2,3.4E1,3.73E2,1.18E2,9E0,2.5E1,1.21E2,2.52E2,1.8E1,1E2,3E0,6E0,2.4E1,1E0],"tree_param":{"num_deleted":"0","num_feature":"11","num_nodes":"15","size_leaf_vector":"1"}},{"base_weights":[2.851711E-2,-1.5671642E-1,9.1603056E-2,-4.1237112E-2,-4.473684E-1,1.9433199E-1,-8.163265E-2,-6.666667E-2,7.2289156E-3,-6.0606062E-2,5E-2,1.0000001E-2,5E-2,-3.7096776E-2,1.2790698E-2],"categories":[],"categories_nodes":[],"categories_segments":[],"categories_sizes":[],"default_left":[0,0,0,0,0,0,0,0,0,0,0,0,0,0,0],"id":49,"left_children":[1,3,5,7,9,11,13,-1,-1,-1,-1,-1,-1,-1,-1],"loss_changes":[6.160998E0,4.479167E0,7.0098176E0,6.935453E0,6.015949E0,7.0720644E0,8.959642E0,0E0,0E0,0E0,0E0,0E0,0E0,0E0,0E0],"parents":[2147483647,0,0,1,1,2,2,3,3,4,4,5,5,6,6],"right_children":[2,4,6,8,10,12,14,-1,-1,-1,-1,-1,-1,-1,-1],"split_conditions":[3.8548397E1,3.462281E-2,2.364032E2,5.6599422E1,2.794912E2,1.8164769E2,2.8977502E2,-1.246866E-3,4.091887E-5,-9.775268E-4,6.465655E-4,5.482985E-5,3.846951E-4,-1.1346646E-3,8.425312E-5],"split_indices":[8,10,7,7,7,7,7,0,0,0,0,0,0,0,0],"split_type":[0,0,0,0,0,0,0,0,0,0,0,0,0,0,0],"sum_hessian":[5.25E2,1.33E2,3.92E2,9.6E1,3.7E1,2.46E2,1.46E2,1.4E1,8.2E1,3.2E1,5E0,1.89E2,5.7E1,6.1E1,8.5E1],"tree_param":{"num_deleted":"0","num_feature":"11","num_nodes":"15","size_leaf_vector":"1"}},{"base_weights":[3.2319393E-2,2.1118012E-1,-4.644809E-2,-6.315789E-2,5.970149E-1,-1.25E-1,2.8169015E-1,-4.047619E-2,2.037037E-2,7.1186446E-2,-2.2222223E-2,4.2424243E-2,-1.9318182E-2,-3.5E-2,5.1923078E-2],"categories":[],"categories_nodes":[],"categories_segments":[],"categories_sizes":[],"default_left":[0,0,0,0,0,0,0,0,0,0,0,0,0,0,0],"id":50,"left_children":[1,3,5,7,9,11,13,-1,-1,-1,-1,-1,-1,-1,-1],"loss_changes":[7.420312E0,1.707942E1,9.469185E0,8.742745E0,6.4621544E0,1.1166667E1,1.0835428E1,0E0,0E0,0E0,0E0,0E0,0E0,0E0,0E0],"parents":[2147483647,0,0,1,1,2,2,3,3,4,4,5,5,6,6],"right_children":[2,4,6,8,10,12,14,-1,-1,-1,-1,-1,-1,-1,-1],"split_conditions":[1.1722667E2,7.14202E1,1.56832E1,2.9731332E-3,8.66399E-2,1.6671972E0,1.6516403E2,-3.7286078E-4,4.9346872E-5,9.6308294E-4,-1.2639035E-4,5.478179E-4,-1.9439473E-4,-3.1681274E-4,2.216617E-3],"split_indices":[7,7,6,10,9,6,7,0,0,0,0,0,0,0,0],"split_type":[0,0,0,0,0,0,0,0,0,0,0,0,0,0,0],"sum_hessian":[5.25E2,1.6E2,3.65E2,9.4E1,6.6E1,2.95E2,7E1,4.1E1,5.3E1,5.8E1,8E0,3.2E1,2.63E2,1.9E1,5.1E1],"tree_param":{"num_deleted":"0","num_feature":"11","num_nodes":"15","size_leaf_vector":"1"}},{"base_weights":[1.7110266E-2,5E-1,-7.984032E-3,6.25E-1,-6.666667E-2,-2.7142859E-1,3.4722224E-2,-0E0,8.3333336E-2,2E-3,-9.52381E-2,5E-2,-0E0],"categories":[],"categories_nodes":[],"categories_segments":[],"categories_sizes":[],"default_left":[0,0,0,0,0,0,0,0,0,0,0,0,0],"id":51,"left_children":[1,3,5,7,-1,9,11,-1,-1,-1,-1,-1,-1],"loss_changes":[6.377944E0,4.208333E0,5.64604E0,3.125E0,0E0,1.3910477E1,6.9791665E0,0E0,0E0,0E0,0E0,0E0,0E0],"parents":[2147483647,0,0,1,1,2,2,3,3,5,5,6,6],"right_children":[2,4,6,8,-1,10,12,-1,-1,-1,-1,-1,-1],"split_conditions":[7.697E-1,3.2541205E2,3.0190527E0,4.686639E1,-3.6704369E-4,2.3875444E0,3.9558418E0,7.515773E-7,1.3095379E-3,1.0427832E-5,-3.670154E-3,5.801145E-4,1.2183563E-6],"split_indices":[6,7,6,7,0,6,6,0,0,0,0,0,0],"split_type":[0,0,0,0,0,0,0,0,0,0,0,0,0],"sum_hessian":[5.25E2,2.5E1,5E2,2.3E1,2E0,6.9E1,4.31E2,6E0,1.7E1,4.9E1,2E1,2.9E1,4.02E2],"tree_param":{"num_deleted":"0","num_feature":"11","num_nodes":"13","size_leaf_vector":"1"}},{"base_weights":[9.505703E-3,-9.795918E-2,1.0283688E-1,-8.75E-2,-7.1428575E-2,2.2222222E-1,-1.3829787E-1,1.6393444E-2,-1.5168539E-2,-5.714286E-2,2.513661E-2,-2.375E-2,4.0000003E-2],"categories":[],"categories_nodes":[],"categories_segments":[],"categories_sizes":[],"default_left":[0,0,0,0,0,0,0,0,0,0,0,0,0],"id":52,"left_children":[1,3,5,-1,7,9,11,-1,-1,-1,-1,-1,-1],"loss_changes":[5.2857614E0,4.9882655E0,8.148936E0,0E0,4.520564E0,4.5152225E0,5.114628E0,0E0,0E0,0E0,0E0,0E0,0E0],"parents":[2147483647,0,0,1,1,2,2,4,4,5,5,6,6],"right_children":[2,4,6,-1,8,10,12,-1,-1,-1,-1,-1,-1],"split_conditions":[5.3005554E1,-1.4650974E-1,7.659269E1,-3.1832575E-3,9.9519424E1,-7.504519E-2,4.0793132E-2,6.956812E-5,-1.4963094E-4,-8.386359E-4,3.132876E-4,-1.4365678E-4,5.362231E-4],"split_indices":[8,9,8,0,7,10,9,0,0,0,0,0,0],"split_type":[0,0,0,0,0,0,0,0,0,0,0,0,0],"sum_hessian":[5.25E2,2.44E2,2.81E2,7E0,2.37E2,1.88E2,9.3E1,6E1,1.77E2,6E0,1.82E2,7.9E1,1.4E1],"tree_param":{"num_deleted":"0","num_feature":"11","num_nodes":"13","size_leaf_vector":"1"}},{"base_weights":[9.505703E-3,-7E-1,2.3210831E-2,5E-2,-8.888889E-2,9.60961E-2,-1.0810811E-1,-7.6045626E-4,4.7887325E-2,-4.2307694E-2,1.2037038E-2],"categories":[],"categories_nodes":[],"categories_segments":[],"categories_sizes":[],"default_left":[0,0,0,0,0,0,0,0,0,0,0],"id":53,"left_children":[1,3,5,-1,-1,7,9,-1,-1,-1,-1],"loss_changes":[5.1310015E0,2.711111E0,4.958707E0,0E0,0E0,1.3221825E1,1.3364191E1,0E0,0E0,0E0,0E0],"parents":[2147483647,0,0,1,1,2,2,5,5,6,6],"right_children":[2,4,6,-1,-1,8,10,-1,-1,-1,-1],"split_conditions":[-1.587183E-1,1.2E1,2.3748738E2,1.0682602E-3,-2.2386075E-3,1.8500558E2,2.8977502E2,-3.0908734E-6,6.342627E-4,-9.028904E-4,1.6149283E-4],"split_indices":[9,4,7,0,0,7,7,0,0,0,0],"split_type":[0,0,0,0,0,0,0,0,0,0,0],"sum_hessian":[5.25E2,9E0,5.16E2,1E0,8E0,3.32E2,1.84E2,2.62E2,7E1,7.7E1,1.07E2],"tree_param":{"num_deleted":"0","num_feature":"11","num_nodes":"11","size_leaf_vector":"1"}},{"base_weights":[-9.505703E-3,-3.1746033E-1,3.2327585E-2,-8.333333E-1,-1.0869565E-1,-1.637931E-1,9.742121E-2,5E-2,-9.411765E-2,8.9999996E-2,-3.783784E-2,5.714286E-2,-2.0909091E-2,6.875E-2,6.8862275E-3],"categories":[],"categories_nodes":[],"categories_segments":[],"categories_sizes":[],"default_left":[0,0,0,0,0,0,0,0,0,0,0,0,0,0,0],"id":54,"left_children":[1,3,5,7,9,11,13,-1,-1,-1,-1,-1,-1,-1,-1],"loss_changes":[6.7865915E0,6.6942716E0,5.939476E0,3.0588236E0,1.285382E1,3.9827368E0,5.834012E0,0E0,0E0,0E0,0E0,0E0,0E0,0E0,0E0],"parents":[2147483647,0,0,1,1,2,2,3,3,4,4,5,5,6,6],"right_children":[2,4,6,8,10,12,14,-1,-1,-1,-1,-1,-1,-1,-1],"split_conditions":[-8.437783E-2,3.0190527E0,3.8548397E1,2.325775E0,5.189953E0,-6.3376054E-2,-7.8737564E-2,5.7111087E-4,-2.6891471E-3,9.614345E-4,-1.1862144E-4,1.4695137E-4,-1.7514825E-4,9.088375E-4,5.68511E-5],"split_indices":[9,6,8,6,6,10,9,0,0,0,0,0,0,0,0],"split_type":[0,0,0,0,0,0,0,0,0,0,0,0,0,0,0],"sum_hessian":[5.25E2,6.2E1,4.63E2,1.7E1,4.5E1,1.15E2,3.48E2,1E0,1.6E1,9E0,3.6E1,6E0,1.09E2,1.5E1,3.33E2],"tree_param":{"num_deleted":"0","num_feature":"11","num_nodes":"15","size_leaf_vector":"1"}},{"base_weights":[-9.505703E-3,-7.5E-1,7.7669905E-3,5E-2,-9.090909E-2,-2.8333333E-1,4.605263E-2,-5.9375E-2,6.8965517E-3,3.7E-2,-4.481793E-3],"categories":[],"categories_nodes":[],"categories_segments":[],"categories_sizes":[],"default_left":[0,0,0,0,0,0,0,0,0,0,0],"id":55,"left_children":[1,3,5,-1,-1,7,9,-1,-1,-1,-1],"loss_changes":[6.733539E0,2.840909E0,5.752704E0,0E0,0E0,6.6025143E0,1.3439981E1,0E0,0E0,0E0,0E0],"parents":[2147483647,0,0,1,1,2,2,5,5,6,6],"right_children":[2,4,6,-1,-1,8,10,-1,-1,-1,-1],"split_conditions":[-1.5348336E-1,1.2E1,4.3197926E1,8.652907E-4,-1.745832E-3,6.728978E-3,1.1834395E2,-8.274928E-4,8.320129E-5,3.0864144E-4,-4.1586565E-5],"split_indices":[9,4,7,0,0,10,7,0,0,0,0],"split_type":[0,0,0,0,0,0,0,0,0,0,0],"sum_hessian":[5.25E2,1.1E1,5.14E2,1E0,1E1,5.9E1,4.55E2,3.1E1,2.8E1,9.9E1,3.56E2],"tree_param":{"num_deleted":"0","num_feature":"11","num_nodes":"11","size_leaf_vector":"1"}},{"base_weights":[-1.9011407E-3,-1.399177E-1,1.16197184E-1,-1.5899582E-1,8.0000006E-2,7.5E-1,6.792453E-2,-2.2872342E-2,9.615385E-3,9.375E-2,-0E0,-3.636364E-2,1.2875536E-2],"categories":[],"categories_nodes":[],"categories_segments":[],"categories_sizes":[],"default_left":[0,0,0,0,0,0,0,0,0,0,0,0,0],"id":56,"left_children":[1,3,5,7,-1,9,11,-1,-1,-1,-1,-1,-1],"loss_changes":[8.589808E0,4.4846396E0,8.638134E0,4.274035E0,0E0,2.8125E0,7.003656E0,0E0,0E0,0E0,0E0,0E0,0E0],"parents":[2147483647,0,0,1,1,2,2,3,3,5,5,6,6],"right_children":[2,4,6,8,-1,10,12,-1,-1,-1,-1,-1,-1],"split_conditions":[5.2140274E1,1.380275E-1,1.1200917E0,1.5494017E1,2.3524906E-3,9.526366E-3,3.0190527E0,-1.4034063E-4,9.179693E-5,1.889907E-3,-3.761216E-5,-6.1076955E-4,1.2567481E-4],"split_indices":[8,10,6,6,0,9,6,0,0,0,0,0,0],"split_type":[0,0,0,0,0,0,0,0,0,0,0,0,0],"sum_hessian":[5.25E2,2.42E2,2.83E2,2.38E2,4E0,1.9E1,2.64E2,1.87E2,5.1E1,1.5E1,4E0,3.2E1,2.32E2],"tree_param":{"num_deleted":"0","num_feature":"11","num_nodes":"13","size_leaf_vector":"1"}},{"base_weights":[-1.3307985E-2,-1.2345679E-1,8.098592E-2,-8.75E-2,-9.7457625E-2,1.8848167E-1,-1.3829787E-1,1.3114753E-2,-1.7613636E-2,-1.904762E-2,2.3391813E-2,8.928572E-3,-4.6153847E-2],"categories":[],"categories_nodes":[],"categories_segments":[],"categories_sizes":[],"default_left":[0,0,0,0,0,0,0,0,0,0,0,0,0],"id":57,"left_children":[1,3,5,-1,7,9,11,-1,-1,-1,-1,-1,-1],"loss_changes":[5.4732237E0,4.662822E0,6.7205367E0,0E0,4.2678823E0,3.3332891E0,6.9562483E0,0E0,0E0,0E0,0E0,0E0,0E0],"parents":[2147483647,0,0,1,1,2,2,4,4,5,5,6,6],"right_children":[2,4,6,-1,8,10,12,-1,-1,-1,-1,-1,-1],"split_conditions":[5.2140274E1,-1.4650974E-1,7.659269E1,-2.2796914E-3,9.9519424E1,-1.0601413E-1,2.364032E2,6.151839E-5,-1.027558E-4,-3.3419393E-4,2.9464773E-4,4.51006E-5,-3.9175508E-4],"split_indices":[8,9,8,0,7,9,7,0,0,0,0,0,0],"split_type":[0,0,0,0,0,0,0,0,0,0,0,0,0],"sum_hessian":[5.25E2,2.42E2,2.83E2,7E0,2.35E2,1.9E2,9.3E1,6E1,1.75E2,2E1,1.7E2,5.5E1,3.8E1],"tree_param":{"num_deleted":"0","num_feature":"11","num_nodes":"13","size_leaf_vector":"1"}},{"base_weights":[-5.7034222E-3,-1.7307693E-2,8.571429E-2,-1.125E-1,6.405694E-2,-1.5566038E-2,2.0689657E-2,2.0979023E-2,-8.633094E-3],"categories":[],"categories_nodes":[],"categories_segments":[],"categories_sizes":[],"default_left":[0,0,0,0,0,0,0,0,0],"id":58,"left_children":[1,3,-1,5,7,-1,-1,-1,-1],"loss_changes":[5.281516E0,4.0347557E0,0E0,3.340672E0,6.176653E0,0E0,0E0,0E0,0E0],"parents":[2147483647,0,0,1,1,3,3,4,4],"right_children":[2,4,-1,6,8,-1,-1,-1,-1],"split_conditions":[1.5743844E-1,5.2140274E1,1.7417016E-3,3.1433768E2,7.038557E1,-1.0047276E-4,3.491996E-4,2.5218012E-4,-4.077852E-5],"split_indices":[10,8,0,7,8,0,0,0,0],"split_type":[0,0,0,0,0,0,0,0,0],"sum_hessian":[5.25E2,5.19E2,6E0,2.39E2,2.8E2,2.11E2,2.8E1,1.42E2,1.38E2],"tree_param":{"num_deleted":"0","num_feature":"11","num_nodes":"9","size_leaf_vector":"1"}},{"base_weights":[-5.7034222E-3,-1.173913E-1,8.080808E-2,-5.641026E-1,-2.6041666E-2,4.3137255E-1,8.097166E-3,1.25E-2,-7.1875E-2,2.2608696E-2,-3.974359E-2,-4.0000003E-2,5.1063832E-2,-8.571429E-2,3.3195023E-3],"categories":[],"categories_nodes":[],"categories_segments":[],"categories_sizes":[],"default_left":[0,0,0,0,0,0,0,0,0,0,0,0,0,0,0],"id":59,"left_children":[1,3,5,7,9,11,13,-1,-1,-1,-1,-1,-1,-1,-1],"loss_changes":[5.091849E0,9.370899E0,7.5669966E0,4.2459936E0,1.8068565E1,3.5651236E0,5.392223E0,0E0,0E0,0E0,0E0,0E0,0E0,0E0,0E0],"parents":[2147483647,0,0,1,1,2,2,3,3,4,4,5,5,6,6],"right_children":[2,4,6,8,10,12,14,-1,-1,-1,-1,-1,-1,-1,-1],"split_conditions":[7.3155527E0,5.457441E1,-4.0662166E-2,-4.5487046E-2,2.4202948E2,-7.2413334E-3,2.2301905E1,1.0968857E-4,-9.911399E-4,2.146069E-4,-3.783092E-4,-1.3855492E-3,2.1222998E-4,-8.972138E-4,3.468804E-5],"split_indices":[6,7,9,10,7,10,8,0,0,0,0,0,0,0,0],"split_type":[0,0,0,0,0,0,0,0,0,0,0,0,0,0,0],"sum_hessian":[5.25E2,2.29E2,2.96E2,3.8E1,1.91E2,5E1,2.46E2,7E0,3.1E1,1.14E2,7.7E1,4E0,4.6E1,6E0,2.4E2],"tree_param":{"num_deleted":"0","num_feature":"11","num_nodes":"15","size_leaf_vector":"1"}},{"base_weights":[1.3307985E-2,-7E-1,2.7079303E-2,5E-2,-8.888889E-2,1.6568047E-1,-4.011461E-2,-3.960396E-3,4.6376813E-2,-4.057971E-2,4.9822065E-3],"categories":[],"categories_nodes":[],"categories_segments":[],"categories_sizes":[],"default_left":[0,0,0,0,0,0,0,0,0,0,0],"id":60,"left_children":[1,3,5,-1,-1,7,9,-1,-1,-1,-1],"loss_changes":[5.1859546E0,2.711111E0,4.8215475E0,0E0,0E0,1.0359942E1,1.1498223E1,0E0,0E0,0E0,0E0],"parents":[2147483647,0,0,1,1,2,2,5,5,6,6],"right_children":[2,4,6,-1,-1,8,10,-1,-1,-1,-1],"split_conditions":[-1.587183E-1,1.2E1,1.2408374E2,8.122269E-4,-1.2507245E-3,7.702566E1,1.6516403E2,-1.532659E-5,8.405203E-4,-7.654642E-4,3.73601E-5],"split_indices":[9,4,7,0,0,7,7,0,0,0,0],"split_type":[0,0,0,0,0,0,0,0,0,0,0],"sum_hessian":[5.25E2,9E0,5.16E2,1E0,8E0,1.68E2,3.48E2,1E2,6.8E1,6.8E1,2.8E2],"tree_param":{"num_deleted":"0","num_feature":"11","num_nodes":"11","size_leaf_vector":"1"}},{"base_weights":[1.9011407E-3,-1.3836478E-1,6.25E-2,-1.0204081E-2,-3.3870968E-1,-0E0,2.6136363E-1,-1.0714286E-2,5.333334E-2,-4.528302E-2,3.0000001E-2,2.1978023E-2,-1.0471204E-2,-4.878049E-3,5.2083332E-2],"categories":[],"categories_nodes":[],"categories_segments":[],"categories_sizes":[],"default_left":[0,0,0,0,0,0,0,0,0,0,0,0,0,0,0],"id":61,"left_children":[1,3,5,7,9,11,13,-1,-1,-1,-1,-1,-1,-1,-1],"loss_changes":[4.4796243E0,4.0790825E0,4.5738635E0,5.2207484E0,4.655021E0,6.4898453E0,7.1070304E0,0E0,0E0,0E0,0E0,0E0,0E0,0E0,0E0],"parents":[2147483647,0,0,1,1,2,2,3,3,4,4,5,5,6,6],"right_children":[2,4,6,8,10,12,14,-1,-1,-1,-1,-1,-1,-1,-1],"split_conditions":[4.222948E1,3.5759334E-3,1.4357792E1,8.99607E0,2.9564493E2,1.2330303E2,1.6516403E2,-1.3179406E-4,2.5178294E-4,-2.4595275E-4,1.664319E-3,1.4275829E-4,-1.1196949E-4,-1.2574873E-4,2.2581927E-3],"split_indices":[8,9,6,6,7,7,7,0,0,0,0,0,0,0,0],"split_type":[0,0,0,0,0,0,0,0,0,0,0,0,0,0,0],"sum_hessian":[5.25E2,1.58E2,3.67E2,9.7E1,6.1E1,2.8E2,8.7E1,8.3E1,1.4E1,5.2E1,9E0,9E1,1.9E2,4E1,4.7E1],"tree_param":{"num_deleted":"0","num_feature":"11","num_nodes":"15","size_leaf_vector":"1"}},{"base_weights":[9.505703E-3,6.4285713E-1,-7.797271E-3,-6.666667E-2,9.166667E-2,-2.5609756E-1,3.935185E-2,9.615385E-3,-8.387097E-2,5E-2,4.9627793E-4],"categories":[],"categories_nodes":[],"categories_segments":[],"categories_sizes":[],"default_left":[0,0,0,0,0,0,0,0,0,0,0],"id":62,"left_children":[1,3,5,-1,-1,7,9,-1,-1,-1,-1],"loss_changes":[5.7693744E0,5.630952E0,6.0158415E0,0E0,0E0,1.6909172E1,6.840944E0,0E0,0E0,0E0,0E0],"parents":[2147483647,0,0,1,1,2,2,5,5,6,6],"right_children":[2,4,6,-1,-1,8,10,-1,-1,-1,-1],"split_conditions":[4.393389E-1,-3.8813267E-2,3.0190527E0,-2.9284935E-4,5.177517E-4,2.0764778E0,3.9558418E0,2.3034216E-5,-1.9759072E-3,4.8858934E-4,1.5785685E-6],"split_indices":[6,9,6,0,0,6,6,0,0,0,0],"split_type":[0,0,0,0,0,0,0,0,0,0,0],"sum_hessian":[5.25E2,1.3E1,5.12E2,2E0,1.1E1,8.1E1,4.31E2,5.1E1,3E1,2.9E1,4.02E2],"tree_param":{"num_deleted":"0","num_feature":"11","num_nodes":"11","size_leaf_vector":"1"}},{"base_weights":[9.505703E-3,-8.163265E-2,8.8652484E-2,1.2307692E-1,-1.5469614E-1,1.2890625E-1,-2.962963E-1,-5E-2,4.3181818E-2,-4.918033E-2,1.6528926E-3,-1.3953489E-2,1.8224299E-2,-8.888889E-2,-0E0],"categories":[],"categories_nodes":[],"categories_segments":[],"categories_sizes":[],"default_left":[0,0,0,0,0,0,0,0,0,0,0,0,0,0,0],"id":63,"left_children":[1,3,5,7,9,11,13,-1,-1,-1,-1,-1,-1,-1,-1],"loss_changes":[3.8014367E0,3.683454E0,4.4079647E0,1.271993E1,1.0455664E1,3.6907797E0,4.740741E0,0E0,0E0,0E0,0E0,0E0,0E0,0E0,0E0],"parents":[2147483647,0,0,1,1,2,2,3,3,4,4,5,5,6,6],"right_children":[2,4,6,8,10,12,14,-1,-1,-1,-1,-1,-1,-1,-1],"split_conditions":[5.3005554E1,9.9519424E1,8.525359E1,-5.3808778E-3,1.8095459E2,6.591703E1,8.637801E1,-6.427471E-4,2.0620711E-4,-6.01903E-4,2.7231872E-6,-1.4986024E-4,1.624167E-4,-4.7123697E-4,-4.0758867E-5],"split_indices":[8,7,8,10,7,7,8,0,0,0,0,0,0,0,0],"split_type":[0,0,0,0,0,0,0,0,0,0,0,0,0,0,0],"sum_hessian":[5.25E2,2.44E2,2.81E2,6.4E1,1.8E2,2.55E2,2.6E1,2.1E1,4.3E1,6E1,1.2E2,4.2E1,2.13E2,8E0,1.8E1],"tree_param":{"num_deleted":"0","num_feature":"11","num_nodes":"15","size_leaf_vector":"1"}},{"base_weights":[1.3307985E-2,3.018868E-1,-1.898734E-2,-3.5714287E-1,5.25E-1,-5.5813956E-1,3.4722224E-2,1.6666668E-2,-6.666667E-2,8.8E-2,-6.25E-3,-1.7391305E-2,-9.52381E-2,-2.9545454E-2,7.1979435E-3],"categories":[],"categories_nodes":[],"categories_segments":[],"categories_sizes":[],"default_left":[0,0,0,0,0,0,0,0,0,0,0,0,0,0,0],"id":64,"left_children":[1,3,5,7,9,11,13,-1,-1,-1,-1,-1,-1,-1,-1],"loss_changes":[4.907919E0,7.980525E0,1.3745296E1,2.3809524E0,8.397501E0,6.3479223E0,5.3355E0,0E0,0E0,0E0,0E0,0E0,0E0,0E0,0E0],"parents":[2147483647,0,0,1,1,2,2,3,3,4,4,5,5,6,6],"right_children":[2,4,6,8,10,12,14,-1,-1,-1,-1,-1,-1,-1,-1],"split_conditions":[1.6671972E0,7.502298E1,3.0190527E0,4.393389E-1,2.597192E2,2.3875444E0,-3.9627634E-2,2.2328905E-4,-1.8210872E-4,1.5559683E-3,-2.9943698E-5,-2.7923082E-4,-2.7440712E-3,-4.0545952E-4,4.4389115E-5],"split_indices":[6,7,6,6,7,6,10,0,0,0,0,0,0,0,0],"split_type":[0,0,0,0,0,0,0,0,0,0,0,0,0,0,0],"sum_hessian":[5.25E2,5.2E1,4.73E2,1.3E1,3.9E1,4.2E1,4.31E2,5E0,8E0,2.4E1,1.5E1,2.2E1,2E1,4.3E1,3.88E2],"tree_param":{"num_deleted":"0","num_feature":"11","num_nodes":"15","size_leaf_vector":"1"}},{"base_weights":[5.7034222E-3,-9.053498E-2,8.802817E-2,-1.5706806E-1,1.509434E-1,1.7801048E-1,-9.5744684E-2,-7.1428576E-3,-5E-2,-2.6086956E-2,4.516129E-2,2.8037384E-2,4.7058826E-3,8.928572E-3,-3.5897437E-2],"categories":[],"categories_nodes":[],"categories_segments":[],"categories_sizes":[],"default_left":[0,0,0,0,0,0,0,0,0,0,0,0,0,0,0],"id":65,"left_children":[1,3,5,7,9,11,13,-1,-1,-1,-1,-1,-1,-1,-1],"loss_changes":[4.1753635E0,3.9278195E0,4.713354E0,5.5736723E0,6.680251E0,2.5470939E0,4.610368E0,0E0,0E0,0E0,0E0,0E0,0E0,0E0,0E0],"parents":[2147483647,0,0,1,1,2,2,3,3,4,4,5,5,6,6],"right_children":[2,4,6,8,10,12,14,-1,-1,-1,-1,-1,-1,-1,-1],"split_conditions":[5.2140274E1,1.5305233E1,7.659269E1,1.0386666E1,-1.7170388E-2,2.3978934E-2,2.364032E2,-6.3021485E-5,-7.7286235E-4,-2.6162292E-4,4.873423E-4,2.7507843E-4,1.1193771E-4,2.5386364E-5,-3.3031925E-4],"split_indices":[8,6,8,6,10,10,7,0,0,0,0,0,0,0,0],"split_type":[0,0,0,0,0,0,0,0,0,0,0,0,0,0,0],"sum_hessian":[5.25E2,2.42E2,2.83E2,1.9E2,5.2E1,1.9E2,9.3E1,1.53E2,3.7E1,2.2E1,3E1,1.06E2,8.4E1,5.5E1,3.8E1],"tree_param":{"num_deleted":"0","num_feature":"11","num_nodes":"15","size_leaf_vector":"1"}},{"base_weights":[1.7110266E-2,1.3872832E-1,-4.2372882E-2,-4.8076924E-2,4.1428572E-1,-3.0769232E-1,4.9242426E-2,-5.9375E-2,1.9178083E-2,-1.5000001E-2,6.27451E-2,4.0816325E-3,-6.976744E-2,5E-2,-6.6350712E-3],"categories":[],"categories_nodes":[],"categories_segments":[],"categories_sizes":[],"default_left":[0,0,0,0,0,0,0,0,0,0,0,0,0,0,0],"id":66,"left_children":[1,3,5,7,9,11,13,-1,-1,-1,-1,-1,-1,-1,-1],"loss_changes":[3.8110805E0,8.925192E0,8.619944E0,1.3725797E1,8.514147E0,1.2396481E1,1.3788759E1,0E0,0E0,0E0,0E0,0E0,0E0,0E0,0E0],"parents":[2147483647,0,0,1,1,2,2,3,3,4,4,5,5,6,6],"right_children":[2,4,6,8,10,12,14,-1,-1,-1,-1,-1,-1,-1,-1],"split_conditions":[1.2408374E2,7.702566E1,1.8164769E2,4.1576195E0,3.694873E1,9.380978E-3,2.2245975E2,-6.642962E-4,5.3647324E-5,-5.6719407E-5,1.1827426E-3,6.507179E-5,-1.4984567E-3,7.720426E-4,-6.0588587E-5],"split_indices":[7,7,7,6,8,10,7,0,0,0,0,0,0,0,0],"split_type":[0,0,0,0,0,0,0,0,0,0,0,0,0,0,0],"sum_hessian":[5.25E2,1.72E2,3.53E2,1.03E2,6.9E1,9E1,2.63E2,3.1E1,7.2E1,1.9E1,5E1,4.8E1,4.2E1,5.3E1,2.1E2],"tree_param":{"num_deleted":"0","num_feature":"11","num_nodes":"15","size_leaf_vector":"1"}},{"base_weights":[9.505703E-3,5.625E-1,-7.827789E-3,-6.666667E-2,7.8571427E-1,-2.3529412E-1,3.7470724E-2,-5E-2,9.2307694E-2,6E-3,-6.388889E-2,2.54717E-2,-3.416149E-3],"categories":[],"categories_nodes":[],"categories_segments":[],"categories_sizes":[],"default_left":[0,0,0,0,0,0,0,0,0,0,0,0,0],"id":67,"left_children":[1,3,5,-1,7,9,11,-1,-1,-1,-1,-1,-1],"loss_changes":[5.0462823E0,4.9136906E0,5.274103E0,0E0,2.9340658E0,1.0168562E1,6.653603E0,0E0,0E0,0E0,0E0,0E0,0E0],"parents":[2147483647,0,0,1,1,2,2,4,4,5,5,6,6],"right_children":[2,4,6,-1,8,10,12,-1,-1,-1,-1,-1,-1],"split_conditions":[5.169E-1,-3.8813267E-2,3.1916666E0,-1.9868412E-4,2.112478E1,2.0764778E0,1.005347E2,-1.8542632E-5,7.1419915E-4,4.0237046E-5,-1.44341E-3,9.452179E-5,-3.170483E-5],"split_indices":[6,9,6,0,8,6,7,0,0,0,0,0,0],"split_type":[0,0,0,0,0,0,0,0,0,0,0,0,0],"sum_hessian":[5.25E2,1.5E1,5.1E2,2E0,1.3E1,8.4E1,4.26E2,1E0,1.2E1,4.9E1,3.5E1,1.05E2,3.21E2],"tree_param":{"num_deleted":"0","num_feature":"11","num_nodes":"13","size_leaf_vector":"1"}},{"base_weights":[2.471483E-2,5E-2,-4.4444445E-1,3.0864198E-2,6.666667E-1,-6.086956E-1,4E-1,-1.0062893E-2,9.45122E-3,-2.5E-2,9.166667E-2,-6.818182E-2,5E-2,7.5E-2,-5E-2],"categories":[],"categories_nodes":[],"categories_segments":[],"categories_sizes":[],"default_left":[0,0,0,0,0,0,0,0,0,0,0,0,0,0,0],"id":68,"left_children":[1,3,5,7,9,11,13,-1,-1,-1,-1,-1,-1,-1,-1],"loss_changes":[6.2620406E0,5.8796296E0,3.9884057E0,4.0769777E0,3.6666665E0,2.205534E0,1.95E0,0E0,0E0,0E0,0E0,0E0,0E0,0E0,0E0],"parents":[2147483647,0,0,1,1,2,2,3,3,4,4,5,5,6,6],"right_children":[2,4,6,8,10,12,14,-1,-1,-1,-1,-1,-1,-1,-1],"split_conditions":[8.525359E1,8.360306E1,1.2096553E1,4.222948E1,6.3157524E1,2.753933E2,2.0190001E2,-7.23077E-5,6.276891E-5,-9.1173575E-4,2.8915182E-4,-4.7487617E-4,2.4758055E-4,7.470679E-5,-2.4381168E-4],"split_indices":[8,8,6,8,7,7,7,0,0,0,0,0,0,0,0],"split_type":[0,0,0,0,0,0,0,0,0,0,0,0,0,0,0],"sum_hessian":[5.25E2,4.99E2,2.6E1,4.85E2,1.4E1,2.2E1,4E0,1.58E2,3.27E2,3E0,1.1E1,2.1E1,1E0,3E0,1E0],"tree_param":{"num_deleted":"0","num_feature":"11","num_nodes":"15","size_leaf_vector":"1"}},{"base_weights":[2.471483E-2,5.625E-1,7.827789E-3,-6.666667E-2,7.8571427E-1,-2.9017856E-2,2.65625E-1,-5E-2,9.2307694E-2,4.722222E-3,-3.370787E-2,-5.8333334E-2,4.528302E-2],"categories":[],"categories_nodes":[],"categories_segments":[],"categories_sizes":[],"default_left":[0,0,0,0,0,0,0,0,0,0,0,0,0],"id":69,"left_children":[1,3,5,-1,7,9,11,-1,-1,-1,-1,-1,-1],"loss_changes":[4.772518E0,4.9136906E0,4.861546E0,0E0,2.9340658E0,1.0537906E1,1.0435633E1,0E0,0E0,0E0,0E0,0E0,0E0],"parents":[2147483647,0,0,1,1,2,2,4,4,5,5,6,6],"right_children":[2,4,6,-1,8,10,12,-1,-1,-1,-1,-1,-1],"split_conditions":[5.169E-1,-3.8813267E-2,3.115441E2,-1.8509263E-4,2.112478E1,2.5762497E2,-4.774309E-2,-9.457394E-6,6.365025E-4,3.3785822E-5,-5.143033E-4,-6.97254E-4,4.425835E-4],"split_indices":[6,9,7,0,8,7,10,0,0,0,0,0,0],"split_type":[0,0,0,0,0,0,0,0,0,0,0,0,0],"sum_hessian":[5.25E2,1.5E1,5.1E2,2E0,1.3E1,4.47E2,6.3E1,1E0,1.2E1,3.59E2,8.8E1,1.1E1,5.2E1],"tree_param":{"num_deleted":"0","num_feature":"11","num_nodes":"13","size_leaf_vector":"1"}},{"base_weights":[1.3307985E-2,2.5096525E-2,-6.666667E-1,-1.2903226E-2,3.5185185E-1,-8.75E-2,5E-2,5.3908355E-3,-2.736842E-2,4.6E-2,-8.0000006E-2],"categories":[],"categories_nodes":[],"categories_segments":[],"categories_sizes":[],"default_left":[0,0,0,0,0,0,0,0,0,0,0],"id":70,"left_children":[1,3,5,7,9,-1,-1,-1,-1,-1,-1],"loss_changes":[4.233099E0,6.4363494E0,2.625E0,8.116537E0,7.094815E0,0E0,0E0,0E0,0E0,0E0,0E0],"parents":[2147483647,0,0,1,1,2,2,3,3,4,4],"right_children":[2,4,6,8,10,-1,-1,-1,-1,-1,-1],"split_conditions":[3.544179E2,3.158717E2,1.1965911E1,2.5762497E2,2.0655777E1,-5.339218E-4,1.2379918E-3,3.641993E-5,-3.125664E-4,5.6150183E-4,-1.3250075E-3],"split_indices":[7,7,6,7,6,0,0,0,0,0,0],"split_type":[0,0,0,0,0,0,0,0,0,0,0],"sum_hessian":[5.25E2,5.17E2,8E0,4.64E2,5.3E1,7E0,1E0,3.7E2,9.4E1,4.9E1,4E0],"tree_param":{"num_deleted":"0","num_feature":"11","num_nodes":"11","size_leaf_vector":"1"}},{"base_weights":[2.0912547E-2,3.4210527E-1,-4.0899795E-3,5.5172414E-1,-3E-1,-3.392857E-1,3.9170507E-2,6.666667E-2,-6.666667E-2,4.0000003E-2,-8.3333336E-2,4.545455E-3,-5.714286E-2,-3.0000001E-2,8.311688E-3],"categories":[],"categories_nodes":[],"categories_segments":[],"categories_sizes":[],"default_left":[0,0,0,0,0,0,0,0,0,0,0,0,0,0,0],"id":71,"left_children":[1,3,5,7,9,11,13,-1,-1,-1,-1,-1,-1,-1,-1],"loss_changes":[4.2255106E0,5.280217E0,7.1041474E0,4.505747E0,4.0666666E0,5.027598E0,6.4938416E0,0E0,0E0,0E0,0E0,0E0,0E0,0E0,0E0],"parents":[2147483647,0,0,1,1,2,2,3,3,4,4,5,5,6,6],"right_children":[2,4,6,8,10,12,14,-1,-1,-1,-1,-1,-1,-1,-1],"split_conditions":[1.1918973E0,9.526366E-3,2.926689E0,3.3272794E2,5.5593336E-1,-4.152512E-2,-3.3826422E-2,6.130344E-4,-1.1119911E-3,2.4166079E-4,-6.1577494E-4,1.475636E-4,-9.2501886E-4,-2.0420738E-4,3.43794E-5],"split_indices":[6,9,6,7,6,10,10,0,0,0,0,0,0,0,0],"split_type":[0,0,0,0,0,0,0,0,0,0,0,0,0,0,0],"sum_hessian":[5.25E2,3.7E1,4.88E2,2.8E1,9E0,5.5E1,4.33E2,2.6E1,2E0,4E0,5E0,2.1E1,3.4E1,4.9E1,3.84E2],"tree_param":{"num_deleted":"0","num_feature":"11","num_nodes":"15","size_leaf_vector":"1"}},{"base_weights":[2.851711E-2,-8.1196584E-2,1.1604095E-1,-6.113537E-2,-8.3333336E-2,1.5730338E-1,-2.962963E-1,1.5000001E-2,-1.3529412E-2,1.3793103E-2,8.571429E-2,-8.888889E-2,-0E0],"categories":[],"categories_nodes":[],"categories_segments":[],"categories_sizes":[],"default_left":[0,0,0,0,0,0,0,0,0,0,0,0,0],"id":72,"left_children":[1,3,5,7,-1,9,11,-1,-1,-1,-1,-1,-1],"loss_changes":[5.060371E0,3.4798265E0,5.031719E0,3.6058695E0,0E0,3.5016322E0,4.740741E0,0E0,0E0,0E0,0E0,0E0,0E0],"parents":[2147483647,0,0,1,1,2,2,3,3,5,5,6,6],"right_children":[2,4,6,8,-1,10,12,-1,-1,-1,-1,-1,-1],"split_conditions":[5.1507637E1,2.2808598E1,8.525359E1,9.9519424E1,-9.508547E-4,1.4273326E-1,8.637801E1,3.473312E-5,-6.1246385E-5,7.1059585E-5,1.1134635E-3,-3.8435997E-4,-3.5387697E-5],"split_indices":[8,6,8,7,0,10,8,0,0,0,0,0,0],"split_type":[0,0,0,0,0,0,0,0,0,0,0,0,0],"sum_hessian":[5.25E2,2.33E2,2.92E2,2.28E2,5E0,2.66E2,2.6E1,5.9E1,1.69E2,2.6E2,6E0,8E0,1.8E1],"tree_param":{"num_deleted":"0","num_feature":"11","num_nodes":"13","size_leaf_vector":"1"}},{"base_weights":[3.6121674E-2,-1.0062893E-1,9.5108695E-2,-0E0,-3.4042552E-1,1.2573099E-1,-2.962963E-1,-9.782609E-3,4.0909093E-2,-4.864865E-2,1.818182E-2,2.1717172E-2,-0E0,-8.888889E-2,-0E0],"categories":[],"categories_nodes":[],"categories_segments":[],"categories_sizes":[],"default_left":[0,0,0,0,0,0,0,0,0,0,0,0,0,0,0],"id":73,"left_children":[1,3,5,7,9,11,13,-1,-1,-1,-1,-1,-1,-1,-1],"loss_changes":[4.2525554E0,3.8367455E0,4.447999E0,4.562253E0,3.6735845E0,3.931951E0,4.740741E0,0E0,0E0,0E0,0E0,0E0,0E0,0E0,0E0],"parents":[2147483647,0,0,1,1,2,2,3,3,4,4,5,5,6,6],"right_children":[2,4,6,8,10,12,14,-1,-1,-1,-1,-1,-1,-1,-1],"split_conditions":[4.222948E1,1.9117367E-2,8.525359E1,9.163205E0,2.8562378E2,2.182499E-2,8.637801E1,-1.00214784E-4,2.8736025E-4,-2.3847744E-4,6.5279315E-4,1.2813733E-4,-7.3709525E-6,-3.4592394E-4,-3.1849E-5],"split_indices":[8,9,8,6,7,10,8,0,0,0,0,0,0,0,0],"split_type":[0,0,0,0,0,0,0,0,0,0,0,0,0,0,0],"sum_hessian":[5.25E2,1.58E2,3.67E2,1.12E2,4.6E1,3.41E2,2.6E1,9.1E1,2.1E1,3.6E1,1E1,1.97E2,1.44E2,8E0,1.8E1],"tree_param":{"num_deleted":"0","num_feature":"11","num_nodes":"15","size_leaf_vector":"1"}},{"base_weights":[2.0912547E-2,1.5483871E-1,-3.4946237E-2,-2.8846154E-2,5.192308E-1,-2.5225225E-1,5.7251908E-2,-5.3125E-2,1.9178083E-2,1.25E-2,8.275863E-2,3.448276E-2,-4.5783132E-2,-4.9751247E-3,4.0322583E-2],"categories":[],"categories_nodes":[],"categories_segments":[],"categories_sizes":[],"default_left":[0,0,0,0,0,0,0,0,0,0,0,0,0,0,0],"id":74,"left_children":[1,3,5,7,9,11,13,-1,-1,-1,-1,-1,-1,-1,-1],"loss_changes":[3.9403923E0,1.038964E1,7.4675407E0,1.1629643E1,6.2178373E0,1.37828045E1,9.719379E0,0E0,0E0,0E0,0E0,0E0,0E0,0E0,0E0],"parents":[2147483647,0,0,1,1,2,2,3,3,4,4,5,5,6,6],"right_children":[2,4,6,8,10,12,14,-1,-1,-1,-1,-1,-1,-1,-1],"split_conditions":[1.129365E2,7.702566E1,1.8205743E2,4.1576195E0,4.9591568E1,5.1360445E0,1.372008E1,-5.3897285E-4,2.858449E-5,1.0221638E-4,1.3241597E-3,4.0138475E-4,-5.866526E-4,-4.8885682E-5,1.6939413E-3],"split_indices":[7,7,7,6,8,6,6,0,0,0,0,0,0,0,0],"split_type":[0,0,0,0,0,0,0,0,0,0,0,0,0,0,0],"sum_hessian":[5.25E2,1.54E2,3.71E2,1.03E2,5.1E1,1.1E2,2.61E2,3.1E1,7.2E1,2.3E1,2.8E1,2.8E1,8.2E1,2E2,6.1E1],"tree_param":{"num_deleted":"0","num_feature":"11","num_nodes":"15","size_leaf_vector":"1"}},{"base_weights":[1.3307985E-2,5.625E-1,-3.9138943E-3,-6.666667E-2,7.8571427E-1,-4.7058824E-2,2.0689656E-1,-5E-2,9.2307694E-2,2.5000002E-3,-4.3939393E-2,-5.6250002E-2,3.75E-2],"categories":[],"categories_nodes":[],"categories_segments":[],"categories_sizes":[],"default_left":[0,0,0,0,0,0,0,0,0,0,0,0,0],"id":75,"left_children":[1,3,5,-1,7,9,11,-1,-1,-1,-1,-1,-1],"loss_changes":[4.977172E0,4.9136906E0,4.657487E0,0E0,2.9340658E0,1.2026248E1,1.1463362E1,0E0,0E0,0E0,0E0,0E0,0E0],"parents":[2147483647,0,0,1,1,2,2,4,4,5,5,6,6],"right_children":[2,4,6,-1,8,10,12,-1,-1,-1,-1,-1,-1],"split_conditions":[5.169E-1,-3.8813267E-2,2.9845236E2,-9.885547E-5,2.112478E1,2.5762497E2,-3.6823668E-2,-1.3011694E-5,5.218667E-4,1.558736E-5,-8.7210163E-4,-5.437708E-4,3.1368362E-4],"split_indices":[6,9,7,0,8,7,10,0,0,0,0,0,0],"split_type":[0,0,0,0,0,0,0,0,0,0,0,0,0],"sum_hessian":[5.25E2,1.5E1,5.1E2,2E0,1.3E1,4.24E2,8.6E1,1E0,1.2E1,3.59E2,6.5E1,1.5E1,7.1E1],"tree_param":{"num_deleted":"0","num_feature":"11","num_nodes":"13","size_leaf_vector":"1"}},{"base_weights":[1.9011407E-3,1.7509727E-2,-6.1538464E-1,-3.6231883E-2,2.3762377E-1,-7.5E-1,5E-2,3.2345012E-3,-6.1363637E-2,1.0714286E-2,8.3333336E-2,-4.0000003E-2,-8.75E-2],"categories":[],"categories_nodes":[],"categories_segments":[],"categories_sizes":[],"default_left":[0,0,0,0,0,0,0,0,0,0,0,0,0],"id":76,"left_children":[1,3,5,7,9,11,-1,-1,-1,-1,-1,-1,-1],"loss_changes":[5.0787635E0,6.088861E0,2.326923E0,1.6412844E1,7.7613153E0,1.7500019E-1,0E0,0E0,0E0,0E0,0E0,0E0,0E0],"parents":[2147483647,0,0,1,1,2,2,3,3,4,4,5,5],"right_children":[2,4,6,8,10,12,-1,-1,-1,-1,-1,-1,-1],"split_conditions":[3.5189017E2,2.8673804E2,3.3196967E-2,2.5762497E2,5.842591E-2,3.544179E2,8.508373E-4,2.3577968E-5,-1.6130091E-3,5.2650274E-5,7.4065867E-4,-1.5843399E-4,-5.303672E-4],"split_indices":[7,7,9,7,10,7,0,0,0,0,0,0,0],"split_type":[0,0,0,0,0,0,0,0,0,0,0,0,0],"sum_hessian":[5.25E2,5.13E2,1.2E1,4.13E2,1E2,1.1E1,1E0,3.7E2,4.3E1,8.3E1,1.7E1,4E0,7E0],"tree_param":{"num_deleted":"0","num_feature":"11","num_nodes":"13","size_leaf_vector":"1"}},{"base_weights":[9.505703E-3,6.4285713E-1,-7.797271E-3,-2.5E-1,9.090909E-2,-6.615776E-2,1.8181819E-1,-6.666667E-2,5E-2,-9.210526E-3,6.428572E-2,2.857143E-2,-4.7058824E-2],"categories":[],"categories_nodes":[],"categories_segments":[],"categories_sizes":[],"default_left":[0,0,0,0,0,0,0,0,0,0,0,0,0],"id":77,"left_children":[1,3,5,7,-1,9,11,-1,-1,-1,-1,-1,-1],"loss_changes":[5.7693744E0,3.5551949E0,5.688913E0,1.5833334E0,0E0,7.2892966E0,8.336134E0,0E0,0E0,0E0,0E0,0E0,0E0],"parents":[2147483647,0,0,1,1,2,2,3,3,5,5,6,6],"right_children":[2,4,6,8,-1,10,12,-1,-1,-1,-1,-1,-1],"split_conditions":[4.393389E-1,4E0,1.4700145E1,1.6201112E-1,4.451482E-4,9.58701E-2,9.03051E-2,-7.7515746E-5,3.5742708E-4,-5.066581E-5,2.4669194E-3,2.1447316E-4,-3.166367E-4],"split_indices":[6,2,6,6,0,9,9,0,0,0,0,0,0],"split_type":[0,0,0,0,0,0,0,0,0,0,0,0,0],"sum_hessian":[5.25E2,1.3E1,5.12E2,3E0,1E1,3.92E2,1.2E2,2E0,1E0,3.79E2,1.3E1,1.04E2,1.6E1],"tree_param":{"num_deleted":"0","num_feature":"11","num_nodes":"13","size_leaf_vector":"1"}},{"base_weights":[9.505703E-3,2.1235522E-2,-6.666667E-1,-4.5180723E-2,1.3903743E-1,-8.75E-2,5E-2,-2.1875E-3,-6.1538465E-2,5.090909E-2,-1.5037594E-3],"categories":[],"categories_nodes":[],"categories_segments":[],"categories_sizes":[],"default_left":[0,0,0,0,0,0,0,0,0,0,0],"id":78,"left_children":[1,3,5,7,9,-1,-1,-1,-1,-1,-1],"loss_changes":[4.186062E0,4.0590935E0,2.625E0,4.398491E0,1.0669647E1,0E0,0E0,0E0,0E0,0E0,0E0],"parents":[2147483647,0,0,1,1,2,2,3,3,4,4],"right_children":[2,4,6,8,10,-1,-1,-1,-1,-1,-1],"split_conditions":[8.7732544E1,6.3291077E1,4.9200434E-2,6.2117874E1,7.038557E1,-1.6311534E-3,1.4991835E-3,-1.321733E-5,-6.296415E-4,5.7075545E-4,-1.0566134E-5],"split_indices":[8,8,9,8,8,0,0,0,0,0,0],"split_type":[0,0,0,0,0,0,0,0,0,0,0],"sum_hessian":[5.25E2,5.17E2,8E0,3.31E2,1.86E2,7E0,1E0,3.19E2,1.2E1,5.4E1,1.32E2],"tree_param":{"num_deleted":"0","num_feature":"11","num_nodes":"11","size_leaf_vector":"1"}},{"base_weights":[5.7034222E-3,-4.187192E-2,1.6528925E-1,1.3533835E-1,-1.2773722E-1,2.6666668E-1,-4.7058824E-1,-1.0000001E-2,3.90625E-2,2.0689657E-2,-2.819149E-2,-6.521739E-3,5.1666666E-2,-0E0,-8.888889E-2],"categories":[],"categories_nodes":[],"categories_segments":[],"categories_sizes":[],"default_left":[0,0,0,0,0,0,0,0,0,0,0,0,0,0,0],"id":79,"left_children":[1,3,5,7,9,11,13,-1,-1,-1,-1,-1,-1,-1,-1],"loss_changes":[4.0004973E0,6.1950703E0,7.9255877E0,8.029534E0,1.4194824E1,8.745651E0,3.3464053E0,0E0,0E0,0E0,0E0,0E0,0E0,0E0,0E0],"parents":[2147483647,0,0,1,1,2,2,3,3,4,4,5,5,6,6],"right_children":[2,4,6,8,10,12,14,-1,-1,-1,-1,-1,-1,-1,-1],"split_conditions":[1.4700145E1,1.2408374E2,9.03051E-2,6.587403E0,4.271806E0,-1.7170388E-2,6.5611335E-3,-4.114695E-5,2.624069E-4,2.0096917E-4,-2.9170123E-4,-1.2707524E-4,7.0288964E-4,4.4336377E-4,-1.2668507E-3],"split_indices":[6,7,9,6,6,10,10,0,0,0,0,0,0,0,0],"split_type":[0,0,0,0,0,0,0,0,0,0,0,0,0,0,0],"sum_hessian":[5.25E2,4.05E2,1.2E2,1.32E2,2.73E2,1.04E2,1.6E1,6.9E1,6.3E1,8.6E1,1.87E2,4.5E1,5.9E1,8E0,8E0],"tree_param":{"num_deleted":"0","num_feature":"11","num_nodes":"15","size_leaf_vector":"1"}},{"base_weights":[-2.471483E-2,-1.7610063E-1,4.076087E-2,-5.3097345E-2,-4.680851E-1,1.6847827E-1,-8.648649E-2,-9.2592597E-4,-8.3333336E-2,-6.486487E-2,1.818182E-2,2.9365081E-2,-1.0169491E-2,-1.904762E-2,3.0769233E-2],"categories":[],"categories_nodes":[],"categories_segments":[],"categories_sizes":[],"default_left":[0,0,0,0,0,0,0,0,0,0,0,0,0,0,0],"id":80,"left_children":[1,3,5,7,9,11,13,-1,-1,-1,-1,-1,-1,-1,-1],"loss_changes":[5.2209377E0,5.6856394E0,5.995197E0,3.8573418E0,5.6333313E0,6.2524223E0,7.6418576E0,0E0,0E0,0E0,0E0,0E0,0E0,0E0,0E0],"parents":[2147483647,0,0,1,1,2,2,3,3,4,4,5,5,6,6],"right_children":[2,4,6,8,10,12,14,-1,-1,-1,-1,-1,-1,-1,-1],"split_conditions":[4.222948E1,1.9117367E-2,8.833033E-3,4.0176613E1,2.8562378E2,2.3966579E2,3.0400043E2,-8.802861E-7,-9.251293E-5,-2.5728438E-4,4.26179E-4,2.1814965E-4,-5.681878E-5,-6.7766756E-5,4.299078E-4],"split_indices":[8,9,10,8,7,7,7,0,0,0,0,0,0,0,0],"split_type":[0,0,0,0,0,0,0,0,0,0,0,0,0,0,0],"sum_hessian":[5.25E2,1.58E2,3.67E2,1.12E2,4.6E1,1.83E2,1.84E2,1.07E2,5E0,3.6E1,1E1,1.25E2,5.8E1,1.46E2,3.8E1],"tree_param":{"num_deleted":"0","num_feature":"11","num_nodes":"15","size_leaf_vector":"1"}},{"base_weights":[-3.6121674E-2,-1.6352202E-1,1.9021738E-2,-5.3097345E-2,-4.2553192E-1,-4.2704627E-2,2.159091E-1,-9.2592597E-4,-8.3333336E-2,-5.945946E-2,1.818182E-2,-2.1818182E-3,-8.571429E-2,-4.651163E-3,4.5652177E-2],"categories":[],"categories_nodes":[],"categories_segments":[],"categories_sizes":[],"default_left":[0,0,0,0,0,0,0,0,0,0,0,0,0,0,0],"id":81,"left_children":[1,3,5,7,9,11,13,-1,-1,-1,-1,-1,-1,-1,-1],"loss_changes":[3.6984124E0,4.5776505E0,4.481576E0,3.8573418E0,4.934079E0,4.7613106E0,5.577708E0,0E0,0E0,0E0,0E0,0E0,0E0,0E0,0E0],"parents":[2147483647,0,0,1,1,2,2,3,3,4,4,5,5,6,6],"right_children":[2,4,6,8,10,12,14,-1,-1,-1,-1,-1,-1,-1,-1],"split_conditions":[4.222948E1,1.9117367E-2,1.4357792E1,4.0176613E1,2.8562378E2,8.7732544E1,1.7622966E2,-7.9236924E-7,-8.326154E-5,-2.3155604E-4,3.8356098E-4,-7.867068E-6,-1.460533E-3,-3.6118552E-5,1.731252E-3],"split_indices":[8,9,6,8,7,8,7,0,0,0,0,0,0,0,0],"split_type":[0,0,0,0,0,0,0,0,0,0,0,0,0,0,0],"sum_hessian":[5.25E2,1.58E2,3.67E2,1.12E2,4.6E1,2.8E2,8.7E1,1.07E2,5E0,3.6E1,1E1,2.74E2,6E0,4.2E1,4.5E1],"tree_param":{"num_deleted":"0","num_feature":"11","num_nodes":"15","size_leaf_vector":"1"}},{"base_weights":[-2.0912547E-2,-6.650246E-2,1.322314E-1,-9.202454E-3,-2.962963E-1,2.3300971E-1,-4.2105263E-1,-8.480566E-3,4.7727272E-2,-1.0169491E-2,-7.826087E-2,5.5813957E-2,-0E0,-6.428572E-2,1.6666668E-2],"categories":[],"categories_nodes":[],"categories_segments":[],"categories_sizes":[],"default_left":[0,0,0,0,0,0,0,0,0,0,0,0,0,0,0],"id":82,"left_children":[1,3,5,7,9,11,13,-1,-1,-1,-1,-1,-1,-1,-1],"loss_changes":[3.681231E0,5.343152E0,6.8449516E0,1.2030456E1,7.586015E0,7.8031154E0,2.5839596E0,0E0,0E0,0E0,0E0,0E0,0E0,0E0,0E0],"parents":[2147483647,0,0,1,1,2,2,3,3,4,4,5,5,6,6],"right_children":[2,4,6,8,10,12,14,-1,-1,-1,-1,-1,-1,-1,-1],"split_conditions":[1.4700145E1,1.0386666E1,8.37205E-2,8.99607E0,3.1946268E-2,1.8581497E1,2.0301312E2,-3.260272E-5,1.0942105E-3,-2.7841423E-5,-9.1253576E-4,1.0902587E-3,-1.0164175E-5,-3.198281E-4,8.7135285E-4],"split_indices":[6,6,9,6,9,6,7,0,0,0,0,0,0,0,0],"split_type":[0,0,0,0,0,0,0,0,0,0,0,0,0,0,0],"sum_hessian":[5.25E2,4.05E2,1.2E2,3.25E2,8E1,1.02E2,1.8E1,2.82E2,4.3E1,5.8E1,2.2E1,4.2E1,6E1,1.3E1,5E0],"tree_param":{"num_deleted":"0","num_feature":"11","num_nodes":"15","size_leaf_vector":"1"}},{"base_weights":[-2.0912547E-2,7E-1,-3.4816246E-2,-5E-2,8.888889E-2,-2.8333333E-1,-2.1834061E-3,-5.5882353E-2,7.4074077E-3,2.666667E-2,-5.46875E-3],"categories":[],"categories_nodes":[],"categories_segments":[],"categories_sizes":[],"default_left":[0,0,0,0,0,0,0,0,0,0,0],"id":83,"left_children":[1,3,5,-1,-1,7,9,-1,-1,-1,-1],"loss_changes":[5.296654E0,2.711111E0,4.1921577E0,0E0,0E0,5.949129E0,6.4795876E0,0E0,0E0,0E0,0E0],"parents":[2147483647,0,0,1,1,2,2,5,5,6,6],"right_children":[2,4,6,-1,-1,8,10,-1,-1,-1,-1],"split_conditions":[3.196889E-1,-3.8813267E-2,4.3197926E1,-1.4554318E-4,4.1486192E-4,1.4637211E-2,1.005347E2,-4.8346593E-4,6.735548E-5,1.0411144E-4,-3.209524E-5],"split_indices":[6,9,7,0,0,10,7,0,0,0,0],"split_type":[0,0,0,0,0,0,0,0,0,0,0],"sum_hessian":[5.25E2,9E0,5.16E2,1E0,8E0,5.9E1,4.57E2,3.3E1,2.6E1,7.4E1,3.83E2],"tree_param":{"num_deleted":"0","num_feature":"11","num_nodes":"11","size_leaf_vector":"1"}},{"base_weights":[-1.7110266E-2,-5.791506E-3,-6.666667E-1,-6.927711E-2,1.0695187E-1,-8.75E-2,5E-2,-1.0689655E-2,1.8604651E-2,4.3636363E-2,-3.0075188E-3],"categories":[],"categories_nodes":[],"categories_segments":[],"categories_sizes":[],"default_left":[0,0,0,0,0,0,0,0,0,0,0],"id":84,"left_children":[1,3,5,7,9,-1,-1,-1,-1,-1,-1],"loss_changes":[3.863382E0,3.7150364E0,2.625E0,3.2087915E0,8.45399E0,0E0,0E0,0E0,0E0,0E0,0E0],"parents":[2147483647,0,0,1,1,2,2,3,3,4,4],"right_children":[2,4,6,8,10,-1,-1,-1,-1,-1,-1],"split_conditions":[8.7732544E1,6.3291077E1,4.9200434E-2,3.115441E2,7.038557E1,-1.2800444E-3,1.0068119E-3,-6.846562E-5,2.720353E-4,5.300465E-4,-8.832663E-6],"split_indices":[8,8,9,7,8,0,0,0,0,0,0],"split_type":[0,0,0,0,0,0,0,0,0,0,0],"sum_hessian":[5.25E2,5.17E2,8E0,3.31E2,1.86E2,7E0,1E0,2.89E2,4.2E1,5.4E1,1.32E2],"tree_param":{"num_deleted":"0","num_feature":"11","num_nodes":"11","size_leaf_vector":"1"}},{"base_weights":[-3.2319393E-2,5.323194E-2,-1.1742424E-1,-2.8846154E-1,1.3679245E-1,-2.1078432E-1,1.9672132E-1,5E-2,-3.8297873E-2,3.1690143E-2,-2.253521E-2,1.25E-2,-3.9097745E-2,3.8E-2,-5.8333334E-2],"categories":[],"categories_nodes":[],"categories_segments":[],"categories_sizes":[],"default_left":[0,0,0,0,0,0,0,0,0,0,0,0,0,0,0],"id":85,"left_children":[1,3,5,7,9,11,13,-1,-1,-1,-1,-1,-1,-1,-1],"loss_changes":[3.8359692E0,7.5486574E0,7.7842298E0,4.0666947E0,1.3899217E1,1.2392102E1,8.9426775E0,0E0,0E0,0E0,0E0,0E0,0E0,0E0,0E0],"parents":[2147483647,0,0,1,1,2,2,3,3,4,4,5,5,6,6],"right_children":[2,4,6,8,10,12,14,-1,-1,-1,-1,-1,-1,-1,-1],"split_conditions":[9.380978E-3,7.702566E1,2.8562378E2,6.065554E0,2.5618085E2,1.0308098E2,3.4852533E2,5.5126475E-5,-3.8332652E-4,4.0597955E-4,-1.2219771E-4,4.8929825E-5,-3.0756742E-4,4.3040514E-4,-2.978582E-4],"split_indices":[10,7,7,7,7,7,7,0,0,0,0,0,0,0,0],"split_type":[0,0,0,0,0,0,0,0,0,0,0,0,0,0,0],"sum_hessian":[5.25E2,2.62E2,2.63E2,5.1E1,2.11E2,2.03E2,6E1,5E0,4.6E1,1.41E2,7E1,7.1E1,1.32E2,4.9E1,1.1E1],"tree_param":{"num_deleted":"0","num_feature":"11","num_nodes":"15","size_leaf_vector":"1"}},{"base_weights":[-2.0912547E-2,5.625E-1,-3.9138943E-2,-6.666667E-2,7.8571427E-1,-2.7722772E-2,-8.571429E-2,-5E-2,9.2307694E-2,-1.3526569E-2,4.682274E-3],"categories":[],"categories_nodes":[],"categories_segments":[],"categories_sizes":[],"default_left":[0,0,0,0,0,0,0,0,0,0,0],"id":86,"left_children":[1,3,5,-1,7,9,-1,-1,-1,-1,-1],"loss_changes":[5.6152406E0,4.9136906E0,4.748197E0,0E0,2.9340658E0,4.054839E0,0E0,0E0,0E0,0E0,0E0],"parents":[2147483647,0,0,1,1,2,2,4,4,5,5],"right_children":[2,4,6,-1,8,10,-1,-1,-1,